tree
version=v4
num_class=1
num_tree_per_iteration=1
label_index=0
max_feature_idx=2
objective=regression
feature_names=Column_0 Column_1 Column_2
feature_infos=[0.0062085165871293979:0.99465382864429452] [0.0021894308231216186:0.99964959377019369] -1:3:5:2:1:0:4
tree_sizes=1463 1503 1533 1487 1480 1520 1549 1540 1502 1542

Tree=0
num_leaves=15
num_cat=3
split_feature=2 2 2 0 1 0 1 0 1 0 0 0 1 1
split_gain=1500.84 117.145 41.2898 8.21719 6.91182 5.30435 13.6703 3.7726 3.44133 2.5289 4.65775 5.82029 2.50176 1.58935
threshold=0 1 2 0.1987154355594383 0.26170306405220423 0.32032075799672272 0.6548562793924505 0.13052529978562263 0.76704393097529844 0.71239950696327392 0.7992348911139785 0.86151297834343388 0.56683244958622481 0.66878577326622779
decision_type=1 1 1 2 2 2 2 2 2 2 2 2 2 2
left_child=1 5 12 -4 -5 6 7 -1 -3 13 -11 -12 -2 -6
right_child=2 8 3 4 9 -7 -8 -9 -10 10 11 -13 -14 -15
leaf_value=5.6106544509021727 5.0573042622362525 5.2439453787096628 4.646927203981905 4.8255924928011122 4.7259190128732014 5.5617209849721734 5.3577746628213214 5.49304119571927 5.1839019928993997 4.8289016658552768 4.6377479599404623 4.7752831582713409 5.0020077767459838 4.6707262103247924
leaf_weight=5.9999999999999982 18 30 9.9999999999999982 8.9999999999999982 15.000000000000002 46 4.9999999999999991 5 13.999999999999998 6.0000000000000027 4.9999999999999991 7.9999999999999991 14.999999999999998 7.9999999999999991
leaf_count=6 18 30 10 9 15 46 5 5 14 6 5 8 15 8
internal_value=5.14115 5.38846 4.86531 4.78775 4.74607 5.48845 5.49488 5.55719 5.20934 4.72902 4.75602 4.72239 5.05751 4.70672
internal_weight=200 106 94 61 51 62 16 11 44 42 19 13 33 23
internal_count=200 106 94 61 51 62 16 11 44 42 19 13 33 23
cat_boundaries=0 1 2 3
cat_threshold=56 48 4
is_linear=0
shrinkage=1


Tree=1
num_leaves=15
num_cat=3
split_feature=2 2 2 0 1 0 1 0 0 1 1 0 0 0
split_gain=1215.68 94.8879 33.4448 6.65593 5.59857 4.29652 11.0729 3.05581 3.03058 2.12568 2.02642 1.71565 3.9922 4.86725
threshold=0 1 2 0.1987154355594383 0.26170306405220423 0.32032075799672272 0.6548562793924505 0.13052529978562263 0.45473002857914335 0.88471391908560948 0.56683244958622481 0.86151297834343388 0.7992348911139785 0.70626286412678552
decision_type=1 1 1 2 2 2 2 2 2 2 2 2 2 2
left_child=1 5 10 -4 -5 6 7 -1 -3 11 -2 12 13 -6
right_child=2 8 3 4 9 -7 -8 -9 -10 -11 -12 -13 -14 -15
leaf_value=0.42255236307779953 -0.075462824768490269 0.045215563897631678 -0.44480217695236207 -0.2840034113989936 -0.37997489351975278 0.37851223790127303 0.19496054410934449 0.31670042514801022 0.098199264645576489 -0.42602121035257978 -0.12522965987523399 -0.31291627883911133 -0.4530634880065918 -0.27666088740030925
leaf_weight=5.9999999999999982 18 19 9.9999999999999982 8.9999999999999982 19.000000000000007 46 4.9999999999999991 5 25 5.9999999999999991 14.999999999999998 5.9999999999999991 4.9999999999999991 5.9999999999999991
leaf_count=6 18 19 10 9 19 46 5 5 25 6 15 6 5 6
internal_value=2.02935e-09 0.22258 -0.248262 -0.318063 -0.355578 0.312572 0.318351 0.374438 0.0613718 -0.370915 -0.0752739 -0.361731 -0.371494 -0.35518
internal_weight=200 106 94 61 51 62 16 11 44 42 33 36 30 25
internal_count=200 106 94 61 51 62 16 11 44 42 33 36 30 25
cat_boundaries=0 1 2 3
cat_threshold=56 48 4
is_linear=0
shrinkage=0.1


Tree=2
num_leaves=15
num_cat=3
split_feature=2 2 2 0 1 1 0 1 0 1 0 1 0 0
split_gain=984.7 76.8592 27.0903 5.3913 4.53484 3.69981 9.16845 2.75724 2.78438 2.62086 2.26165 2.24361 1.83828 3.15017
threshold=0 1 2 0.1987154355594383 0.26170306405220423 0.62214350930640128 0.36584679254382829 0.49011186620333758 0.14546186220378091 0.76704393097529844 0.62532668763422328 0.76704393097529844 0.71239950696327392 0.7992348911139785
decision_type=1 1 1 2 2 2 2 2 2 2 2 2 2 2
left_child=1 5 -2 -4 -5 7 -7 8 -1 -3 -10 -8 -6 -14
right_child=2 9 3 4 12 6 11 -9 10 -11 -12 -13 13 -15
leaf_value=0.38898661931355771 -0.067746471215126128 0.084460375706354784 -0.40032196044921875 -0.25560307105382285 -0.35283839495285702 0.17546448945999135 0.29505647659301748 0.38830358765342021 0.28045317801562214 0.032061303726264409 0.34616236686706547 0.36387871636284724 -0.2508697350819904 -0.33846817291699927
leaf_weight=6.0000000000000027 33 30 9.9999999999999982 8.9999999999999982 23 5.0000000000000027 10.000000000000002 10.999999999999998 11.000000000000002 13.999999999999998 9.9999999999999982 8.9999999999999982 6.0000000000000027 12.999999999999998
leaf_count=6 33 30 10 9 23 5 10 11 11 14 10 9 6 13
internal_value=-1.28895e-09 0.200322 -0.223436 -0.286257 -0.32002 0.281315 0.29595 0.346102 0.328908 0.0552346 0.311743 0.327656 -0.333824 -0.310806
internal_weight=200 106 94 61 51 62 24 38 27 44 21 19 42 19
internal_count=200 106 94 61 51 62 24 38 27 44 21 19 42 19
cat_boundaries=0 1 2 3
cat_threshold=56 48 4
is_linear=0
shrinkage=0.1


Tree=3
num_leaves=15
num_cat=3
split_feature=2 2 2 1 0 1 0 1 0 0 1 1 1 0
split_gain=800.334 62.2559 19.7605 4.74163 3.06273 7.04408 3.04481 5.04447 2.30934 2.14827 1.65656 1.55392 1.80247 1.24173
threshold=0 1 2 0.88471391908560948 0.32032075799672272 0.6548562793924505 0.54879555283863279 0.29140247840034494 0.45473002857914335 0.13052529978562263 0.60633177827232743 0.2180695803855586 0.56683244958622481 0.43731045559136239
decision_type=1 1 1 2 2 2 2 2 2 2 2 2 2 2
left_child=1 4 10 6 5 9 11 -8 -3 -1 -2 -4 -13 -6
right_child=2 8 3 -5 13 -7 7 -9 -10 -11 -12 12 -14 -15
leaf_value=0.34140983025232957 -0.062268664883939839 0.03473002993942876 -0.35405727113996216 -0.36688189506530766 0.34293555021286015 0.1579180383682251 -0.17482899427413928 -0.28565407939579174 0.080981279373168957 0.2526573848724365 -0.10760215989180975 -0.26737594074673116 -0.33261264860630035 0.29958885688530773
leaf_weight=5.9999999999999982 19 19 7.0000000000000027 8.9999999999999982 7.9999999999999991 4.9999999999999991 5.0000000000000027 23 25 5 13.999999999999998 9.0000000000000018 7.9999999999999991 38
leaf_count=6 19 19 7 9 8 5 5 23 25 5 14 9 8 38
internal_value=-0.000338733 0.18029 -0.201744 -0.257631 0.253183 0.256334 -0.288267 -0.265864 0.0497112 0.301068 -0.0625473 -0.314404 -0.298076 0.307127
internal_weight=200 106 94 61 62 16 52 28 44 11 33 24 17 46
internal_count=200 106 94 61 62 16 52 28 44 11 33 24 17 46
cat_boundaries=0 1 2 3
cat_threshold=56 48 4
is_linear=0
shrinkage=0.1


Tree=4
num_leaves=15
num_cat=3
split_feature=2 2 2 1 1 0 0 1 0 0 1 1 1 1
split_gain=648.27 50.4273 16.006 3.84072 2.60889 5.9033 2.54925 2.74033 2.61311 2.92877 2.21828 2.38917 2.05316 2.03138
threshold=0 1 2 0.88471391908560948 0.62214350930640128 0.36584679254382829 0.59194656701597803 0.41152030626780961 0.7992348911139785 0.86151297834343388 0.49011186620333758 0.15139817770709488 0.30524547076142944 0.37491393346776769
decision_type=1 1 1 2 2 2 2 2 2 2 2 2 2 2
left_child=1 4 -2 6 10 -6 -4 -8 -9 -10 11 -1 -13 -14
right_child=2 -3 3 -5 5 -7 7 8 9 -11 -12 12 13 -15
leaf_value=0.31134098619222628 -0.056292590966751412 0.044740043249395157 -0.28158150957180905 -0.33019370105531487 0.14212624073028554 0.26424752787539835 -0.1780261754989623 -0.21893422722816461 -0.34534491539001477 -0.23710875988006586 0.31877268227663907 0.21154474417368563 0.32245214939117439 0.23231048107147215
leaf_weight=8.0000000000000018 33 44 26 8.9999999999999982 5.0000000000000027 19 6.0000000000000027 10.000000000000002 4.9999999999999982 5 10.999999999999998 9.0000000000000018 4.9999999999999982 5
leaf_count=8 33 44 26 9 5 19 6 10 5 5 11 9 5 5
internal_value=-0.000304859 0.162261 -0.181569 -0.231868 0.227865 0.238806 -0.25944 -0.237299 -0.255081 -0.291227 0.28092 0.265498 0.246196 0.277381
internal_weight=200 106 94 61 62 24 52 26 20 10 38 27 19 10
internal_count=200 106 94 61 62 24 52 26 20 10 38 27 19 10
cat_boundaries=0 1 2 3
cat_threshold=56 48 4
is_linear=0
shrinkage=0.1


Tree=5
num_leaves=15
num_cat=3
split_feature=2 2 2 0 1 0 1 0 1 0 0 0 0 0
split_gain=528.25 39.7782 11.5038 3.3963 2.78057 2.50854 4.41686 2.67818 1.99597 1.68425 1.49644 1.47439 2.23828 3.41757
threshold=0 1 2 0.1987154355594383 0.26170306405220423 0.50302499921021415 0.6548562793924505 0.77767226197160333 0.76704393097529844 0.95181208678453533 0.36052851507573241 0.71239950696327392 0.7992348911139785 0.86151297834343388
decision_type=1 1 1 2 2 2 2 2 2 2 2 2 2 2
left_child=1 5 10 -4 -5 6 -1 -7 -3 -9 -2 -6 -13 -14
right_child=2 8 3 4 11 7 -8 9 -10 -11 -12 12 13 -15
leaf_value=0.24372745481404393 -0.10249582992659674 0.064983915785948435 -0.29617848992347717 -0.18200159602695043 -0.26028085065924605 0.29087159633636467 0.16357434391975403 0.20236769384808012 0.019256335603339333 0.26777008090700422 -0.054681391982982552 -0.17211580276489247 -0.31081041812896731 -0.20542017817497255
leaf_weight=22 8.9999999999999982 30 9.9999999999999982 8.9999999999999982 23 14.000000000000002 9.9999999999999982 8.9999999999999982 13.999999999999998 6.9999999999999991 24 6.0000000000000027 4.9999999999999991 7.9999999999999991
leaf_count=22 9 30 10 9 23 14 10 9 14 7 24 6 5 8
internal_value=-0.000332136 0.14642 -0.163954 -0.208681 -0.232443 0.205078 0.21868 0.25893 0.0410946 0.230981 -0.0519725 -0.243252 -0.222637 -0.245955
internal_weight=200 106 94 61 51 62 32 30 44 16 33 42 19 13
internal_count=200 106 94 61 51 62 32 30 44 16 33 42 19 13
cat_boundaries=0 1 2 3
cat_threshold=56 48 4
is_linear=0
shrinkage=0.1


Tree=6
num_leaves=15
num_cat=3
split_feature=2 2 2 0 1 1 0 0 0 1 0 0 1 1
split_gain=427.882 37.1107 14.0202 3.751 2.40155 2.17007 1.43927 1.09667 1.01361 0.842792 0.783242 0.737769 0.723385 0.545213
threshold=0 1 2 0.91930032323683053 0.70666996891544487 0.29140247840034494 0.62532668763422328 0.7992348911139785 0.71239950696327392 0.32869584551499609 0.61977523992206451 0.32768793002313118 0.89518480935799549 0.88078791380806576
decision_type=1 1 1 2 2 2 2 2 2 2 2 2 2 2
left_child=1 6 4 5 8 11 -1 13 -2 -10 -7 -3 -4 -6
right_child=2 3 12 -5 7 10 -8 -9 9 -11 -12 -13 -14 -15
leaf_value=0.2683514028787613 -0.092882199534054466 0.072153094410896304 -0.30186795520782472 0.13753779828548432 -0.15765943016324718 0.044216495503981906 0.31076700687408448 -0.083199875354766861 -0.031831644599636395 -0.080216439233885883 0.071613709256052968 0.11543935272428725 -0.34353478431701662 -0.11944436430931092
leaf_weight=24 29 6.9999999999999991 25.000000000000004 7.9999999999999991 7.0000000000000027 30 11.999999999999998 4.9999999999999991 5.9999999999999991 8.9999999999999982 15.999999999999998 8.9999999999999982 4.9999999999999991 7.9999999999999991
leaf_count=24 29 7 25 8 7 30 12 5 6 9 16 9 5 8
internal_value=-0.000298923 0.131778 -0.147558 0.063958 -0.082185 0.0647797 0.221079 -0.123759 -0.0819664 -0.0608625 0.053746 0.0965016 -0.231609 -0.137278
internal_weight=200 106 94 70 64 62 36 20 44 15 46 16 30 15
internal_count=200 106 94 70 64 62 36 20 44 15 46 16 30 15
cat_boundaries=0 1 2 3
cat_threshold=56 32 6
is_linear=0
shrinkage=0.1


Tree=7
num_leaves=15
num_cat=3
split_feature=2 2 2 1 1 0 0 0 0 0 1 0 1 1
split_gain=346.585 30.0597 11.3563 3.09275 1.94525 1.71586 1.18584 0.936315 0.888302 0.821023 0.740041 0.611462 0.585942 0.474048
threshold=0 1 2 0.39790148759161104 0.70666996891544487 0.78962713799888962 0.72957523389000556 0.77767226197160333 0.7992348911139785 0.71239950696327392 0.4728404075702225 0.7992348911139785 0.89518480935799549 0.2180695803855586
decision_type=1 1 1 2 2 2 2 2 2 2 2 2 2 2
left_child=1 6 4 5 9 -3 -1 -5 -6 13 11 -11 -4 -2
right_child=2 3 12 7 8 -7 -8 -9 -10 10 -12 -13 -14 -15
leaf_value=0.24532407851054749 -0.068376386848588766 0.074437694514498984 -0.27168115997314451 0.041205374507064171 -0.12355025609334308 0.12843617134624058 0.29118225233895439 0.074894050576470125 -0.074879885911941529 -0.014342447519302371 -0.086188394725322734 -0.063797965943813317 -0.30918131351470945 -0.094335806720397056
leaf_weight=29 12.000000000000002 17.000000000000004 25.000000000000004 33 15.000000000000002 8.9999999999999982 6.9999999999999991 10.999999999999998 4.9999999999999991 4.9999999999999982 4.9999999999999991 5 4.9999999999999991 17
leaf_count=29 12 17 25 33 15 9 7 11 5 5 5 5 5 17
internal_value=-0.00026903 0.1186 -0.132802 0.0575622 -0.0739665 0.0931295 0.198971 0.0496275 -0.111383 -0.0737698 -0.0547763 -0.0390702 -0.208448 -0.083594
internal_weight=200 106 94 70 64 26 36 44 20 44 15 10 30 29
internal_count=200 106 94 70 64 26 36 44 20 44 15 10 30 29
cat_boundaries=0 1 2 3
cat_threshold=56 32 6
is_linear=0
shrinkage=0.1


Tree=8
num_leaves=15
num_cat=3
split_feature=2 2 2 1 0 0 1 0 1 0 0 0 0 0
split_gain=280.733 25.4655 9.7759 1.92744 1.42277 1.27725 1.66357 1.19989 1.1461 1.0654 1.11579 1.0502 1.00337 0.955754
threshold=0 1 2 0.88471391908560948 0.45473002857914335 0.49733888563528544 0.6548562793924505 0.59194656701597803 0.41152030626780961 0.77767226197160333 0.62532668763422328 0.7992348911139785 0.36052851507573241 0.86151297834343388
decision_type=1 1 1 2 2 2 2 2 2 2 2 2 2 2
left_child=1 5 12 7 -3 6 -1 -4 -9 10 -7 -10 -2 -13
right_child=2 4 3 -5 -6 9 -8 8 11 -11 -12 13 -14 -15
leaf_value=0.17593726771218435 -0.073107413450876874 0.01212387289851904 -0.18742524568851179 -0.22235730422867672 0.048427219673991204 0.18843087770722122 0.1223496712744236 -0.11871228416760755 -0.14562914490699763 0.17139939218759537 0.24204051494598389 -0.22237446784973147 -0.033954852726310492 -0.16054391741752624
leaf_weight=21.000000000000004 8.9999999999999982 19 26 8.9999999999999982 25 11.000000000000002 7.9999999999999991 6.0000000000000027 10.000000000000002 15.999999999999998 5.9999999999999991 4.9999999999999982 24 5
leaf_count=21 9 19 26 9 25 11 8 6 10 16 6 5 24 5
internal_value=-0.000242127 0.10674 -0.119522 -0.15433 0.0266858 0.151956 0.161154 -0.172235 -0.157045 0.18992 0.207352 -0.168544 -0.0342531 -0.191459
internal_weight=200 106 94 61 44 62 29 52 26 33 17 20 33 10
internal_count=200 106 94 61 44 62 29 52 26 33 17 20 33 10
cat_boundaries=0 1 2 3
cat_threshold=56 48 4
is_linear=0
shrinkage=0.1


Tree=9
num_leaves=15
num_cat=3
split_feature=2 2 2 1 1 0 0 0 0 0 1 1 1 0
split_gain=227.394 23.3348 11.273 2.16899 1.36405 1.12342 0.986748 0.623038 0.618622 0.524035 0.490718 0.424094 0.381815 0.372256
threshold=0 1 2 0.39790148759161104 0.70666996891544487 0.78962713799888962 0.72957523389000556 0.7992348911139785 0.77767226197160333 0.71239950696327392 0.4728404075702225 0.43650176669812835 0.89518480935799549 0.7992348911139785
decision_type=1 1 1 2 2 2 2 2 2 2 2 2 2 2
left_child=1 6 4 5 9 -3 11 -6 -5 -2 13 -1 -4 -11
right_child=2 3 12 8 7 -7 -8 -9 -10 10 -12 -13 -14 -15
leaf_value=0.22011025084389574 -0.064619199912352807 0.058858651361044706 -0.22575607872009273 0.030706907547728132 -0.098457271258036272 0.1025516861014896 0.24391492775508336 -0.057696582674980172 0.058090207793495878 -0.0095127174258232139 -0.067175313979387294 0.19397095441818238 -0.25602745056152343 -0.048100604414939879
leaf_weight=9.0000000000000018 29 17.000000000000004 25.000000000000004 33 15.000000000000002 8.9999999999999982 6.9999999999999991 4.9999999999999991 10.999999999999998 4.9999999999999982 4.9999999999999991 20 4.9999999999999991 5
leaf_count=9 29 17 25 33 15 9 7 5 11 5 5 20 5 5
internal_value=-0.000217914 0.0960664 -0.10757 0.0446985 -0.0576114 0.0739832 0.164518 -0.0882671 0.0375527 -0.0567705 -0.0415962 0.202083 -0.173101 -0.0288067
internal_weight=200 106 94 70 64 26 36 20 44 44 15 29 30 10
internal_count=200 106 94 70 64 26 36 20 44 44 15 29 30 10
cat_boundaries=0 1 2 3
cat_threshold=56 32 6
is_linear=0
shrinkage=0.1


end of trees

feature_importances:
Column_0=62
Column_1=48
Column_2=30

parameters:
[boosting: gbdt]
[objective: regression]
[metric: l2]
[tree_learner: serial]
[device_type: cpu]
[data_sample_strategy: bagging]
[data: ]
[valid: ]
[num_iterations: 10]
[learning_rate: 0.1]
[num_leaves: 15]
[num_threads: 0]
[seed: 1234]
[deterministic: 1]
[force_col_wise: 0]
[force_row_wise: 0]
[histogram_pool_size: -1]
[max_depth: -1]
[min_data_in_leaf: 5]
[min_sum_hessian_in_leaf: 0.001]
[bagging_fraction: 1]
[pos_bagging_fraction: 1]
[neg_bagging_fraction: 1]
[bagging_freq: 0]
[bagging_seed: 213]
[bagging_by_query: 0]
[feature_fraction: 1]
[feature_fraction_bynode: 1]
[feature_fraction_seed: 8758]
[extra_trees: 0]
[extra_seed: 7717]
[early_stopping_round: 0]
[early_stopping_min_delta: 0]
[first_metric_only: 0]
[max_delta_step: 0]
[lambda_l1: 0]
[lambda_l2: 0]
[linear_lambda: 0]
[min_gain_to_split: 0]
[drop_rate: 0.1]
[max_drop: 50]
[skip_drop: 0.5]
[xgboost_dart_mode: 0]
[uniform_drop: 0]
[drop_seed: 12761]
[top_rate: 0.2]
[other_rate: 0.1]
[min_data_per_group: 5]
[max_cat_threshold: 32]
[cat_l2: 10]
[cat_smooth: 1]
[max_cat_to_onehot: 1]
[top_k: 20]
[monotone_constraints: ]
[monotone_constraints_method: basic]
[monotone_penalty: 0]
[feature_contri: ]
[forcedsplits_filename: ]
[refit_decay_rate: 0.9]
[cegb_tradeoff: 1]
[cegb_penalty_split: 0]
[cegb_penalty_feature_lazy: ]
[cegb_penalty_feature_coupled: ]
[path_smooth: 0]
[interaction_constraints: ]
[verbosity: -1]
[saved_feature_importance_type: 0]
[use_quantized_grad: 0]
[num_grad_quant_bins: 4]
[quant_train_renew_leaf: 0]
[stochastic_rounding: 1]
[linear_tree: 0]
[max_bin: 255]
[max_bin_by_feature: ]
[min_data_in_bin: 3]
[bin_construct_sample_cnt: 200000]
[data_random_seed: 4068]
[is_enable_sparse: 1]
[enable_bundle: 1]
[use_missing: 1]
[zero_as_missing: 0]
[feature_pre_filter: 1]
[pre_partition: 0]
[two_round: 0]
[header: 0]
[label_column: ]
[weight_column: ]
[group_column: ]
[ignore_column: ]
[categorical_feature: 2]
[forcedbins_filename: ]
[precise_float_parser: 0]
[parser_config_file: ]
[objective_seed: 23056]
[num_class: 1]
[is_unbalance: 0]
[scale_pos_weight: 1]
[sigmoid: 1]
[boost_from_average: 1]
[reg_sqrt: 0]
[alpha: 0.9]
[fair_c: 1]
[poisson_max_delta_step: 0.7]
[tweedie_variance_power: 1.5]
[lambdarank_truncation_level: 30]
[lambdarank_norm: 1]
[label_gain: ]
[lambdarank_position_bias_regularization: 0]
[eval_at: ]
[multi_error_top_k: 1]
[auc_mu_weights: ]
[num_machines: 1]
[local_listen_port: 12400]
[time_out: 120]
[machine_list_filename: ]
[machines: ]
[gpu_platform_id: -1]
[gpu_device_id: -1]
[gpu_use_dp: 0]
[num_gpu: 1]

end of parameters

pandas_categorical:null
