{
  "input": [
    [
      0.1915194503788923,
      0.6221087710398319,
      0.4377277390071145,
      0.7853585837137692
    ],
    [
      0.7799758081188035,
      0.2725926052826416,
      0.2764642551430967,
      0.8018721775350193
    ],
    [
      0.9581393536837052,
      0.8759326347420947,
      0.35781726995786667,
      0.5009951255234587
    ],
    [
      0.6834629351721363,
      0.7127020269829002,
      0.37025075479039493,
      0.5611961860656249
    ],
    [
      0.5030831653078097,
      0.013768449590682241,
      0.772826621612374,
      0.8826411906361166
    ],
    [
      0.3648859839013723,
      0.6153961784334937,
      0.07538124164297655,
      0.3688240060019745
    ],
    [
      0.9331401019825216,
      0.6513781432265774,
      0.3972025777261542,
      0.7887301429407455
    ],
    [
      0.31683612216887125,
      0.5680986526260692,
      0.8691273895612258,
      0.43617342389567937
    ],
    [
      0.8021476420801591,
      0.14376682451456457,
      0.7042609711183354,
      0.7045813081895725
    ],
    [
      0.21879210567408858,
      0.924867628615565,
      0.44214075540417663,
      0.9093159589724725
    ],
    [
      0.0598092227798519,
      0.18428708381381365,
      0.04735527880151513,
      0.6748809435823302
    ],
    [
      0.5946247799344488,
      0.5333101629987506,
      0.04332406269480349,
      0.5614330800633979
    ],
    [
      0.329668445620915,
      0.5029668331126184,
      0.11189431757440382,
      0.6071937062184846
    ],
    [
      0.5659446430505314,
      0.00676406199000279,
      0.617441708804297,
      0.9121228864331543
    ],
    [
      0.7905241330570334,
      0.9920814661883615,
      0.9588017621528665,
      0.7919641352916398
    ],
    [
      0.2852509600245098,
      0.624916705305911,
      0.47809379567067456,
      0.19567517866589823
    ],
    [
      0.38231745203150647,
      0.05387368514623658,
      0.45164840826085906,
      0.9820047415219545
    ],
    [
      0.12394270048696299,
      0.1193808979262484,
      0.7385230561433468,
      0.5873036334639846
    ],
    [
      0.4716325343203678,
      0.1071268171938663,
      0.22921856546061792,
      0.8999651948366754
    ],
    [
      0.4167535378026932,
      0.5358516625316159,
      0.006208516587129398,
      0.30064170577030114
    ],
    [
      0.4368931721756102,
      0.6121489970657575,
      0.9181980753805731,
      0.6257366699625353
    ],
    [
      0.7059975650817732,
      0.14983371598992723,
      0.7460634091367166,
      0.8310069924335378
    ],
    [
      0.6337257689509791,
      0.4383098811224275,
      0.15257277467450536,
      0.5684096152471901
    ],
    [
      0.5282242775850605,
      0.9514287637535932,
      0.4803591785100161,
      0.5025595633825504
    ],
    [
      0.5368781929244097,
      0.8192020670641583,
      0.05711563808885989,
      0.6694217430745488
    ],
    [
      0.7671166283794725,
      0.7081153619776038,
      0.7968671837251966,
      0.5577608284274495
    ],
    [
      0.9658365319921276,
      0.14715689989299718,
      0.02964700053541558,
      0.5938934926247718
    ],
    [
      0.11406569874266248,
      0.9508098500841222,
      0.32570741442534723,
      0.1936186901537772
    ],
    [
      0.45781164889742754,
      0.9204025710930878,
      0.8790691615146757,
      0.2526157550465302
    ],
    [
      0.34800879286934616,
      0.18258873158030875,
      0.9017960513709921,
      0.7065281631717975
    ],
    [
      0.7266584615621408,
      0.9000878368097077,
      0.7791638007693242,
      0.5991547806042924
    ],
    [
      0.29112524489787484,
      0.15139526440743212,
      0.3351746591494349,
      0.6575517771578194
    ],
    [
      0.07334254363261816,
      0.05500639540622365,
      0.32319481392117644,
      0.5904818044629861
    ],
    [
      0.8538985671256417,
      0.287062425000009,
      0.17306722681479214,
      0.13402120599884282
    ],
    [
      0.9946538286442945,
      0.17949786946939184,
      0.31754682302719583,
      0.5682914046591072
    ],
    [
      0.00934857450024451,
      0.9006486211550919,
      0.9772414309225871,
      0.5568946791368349
    ],
    [
      0.08477384339419014,
      0.3330024657291001,
      0.728428676369672,
      0.14243537334181722
    ],
    [
      0.5524689394975455,
      0.2730432596836856,
      0.9744951380872597,
      0.6677869061450377
    ],
    [
      0.25565328643413965,
      0.10831149418272878,
      0.7761807231738822,
      0.782477992600202
    ],
    [
      0.7616039143074941,
      0.9144031132693238,
      0.6586227819424226,
      0.5683675815729324
    ]
  ],
  "families": {
    "rf_regressor": {
      "n_estimators": 5,
      "n_features_in": 4,
      "n_outputs": 1,
      "n_classes": null,
      "trees": [
        {
          "node_count": 25,
          "children_left": [
            1,
            2,
            3,
            -1,
            -1,
            6,
            7,
            -1,
            -1,
            10,
            -1,
            -1,
            13,
            14,
            15,
            -1,
            -1,
            -1,
            19,
            20,
            -1,
            -1,
            23,
            -1,
            -1
          ],
          "children_right": [
            12,
            5,
            4,
            -1,
            -1,
            9,
            8,
            -1,
            -1,
            11,
            -1,
            -1,
            18,
            17,
            16,
            -1,
            -1,
            -1,
            22,
            21,
            -1,
            -1,
            24,
            -1,
            -1
          ],
          "feature": [
            0,
            0,
            1,
            -2,
            -2,
            0,
            0,
            -2,
            -2,
            1,
            -2,
            -2,
            0,
            0,
            1,
            -2,
            -2,
            -2,
            2,
            2,
            -2,
            -2,
            1,
            -2,
            -2
          ],
          "threshold": [
            0.39953549206256866,
            0.13814665004611015,
            0.25864478200674057,
            -2.0,
            -2.0,
            0.30398067831993103,
            0.2413223460316658,
            -2.0,
            -2.0,
            0.5355327427387238,
            -2.0,
            -2.0,
            0.764360249042511,
            0.7441311776638031,
            0.08180107921361923,
            -2.0,
            -2.0,
            -2.0,
            0.5366657227277756,
            0.1013571135699749,
            -2.0,
            -2.0,
            0.8500984013080597,
            -2.0,
            -2.0
          ],
          "value": [
            0.5367911203315834,
            0.3580639649804233,
            0.6006931130803408,
            0.5934113295689697,
            0.6043340048360264,
            0.2771875822804509,
            0.14509291432404417,
            0.2017556924529783,
            0.12620532161439946,
            0.38286331664557627,
            0.33726949109989485,
            0.4512540549640983,
            0.6133884726249377,
            0.685862198074069,
            0.6425803584460597,
            0.9935673628631737,
            0.5987069828939205,
            0.9455532358421244,
            0.3959672962775437,
            0.5050204299642155,
            0.3632397601935981,
            0.7176914346201414,
            0.12333446206086424,
            0.031034861133332647,
            0.21563406298839582
          ],
          "value_shape": [
            25,
            1,
            1
          ],
          "n_node_samples": [
            23,
            7,
            2,
            1,
            1,
            5,
            2,
            1,
            1,
            3,
            2,
            1,
            16,
            11,
            10,
            1,
            9,
            1,
            5,
            3,
            1,
            2,
            2,
            1,
            1
          ],
          "weighted_n_node_samples": [
            40.0,
            12.0,
            3.0,
            1.0,
            2.0,
            9.0,
            4.0,
            1.0,
            3.0,
            5.0,
            3.0,
            2.0,
            28.0,
            21.0,
            18.0,
            2.0,
            16.0,
            3.0,
            7.0,
            5.0,
            3.0,
            2.0,
            2.0,
            1.0,
            1.0
          ],
          "impurity": [
            0.06568672732783298,
            0.03185544835315507,
            2.6512185553329015e-05,
            0.0,
            0.0,
            0.016301136627826007,
            0.0010702234750962734,
            0.0,
            0.0,
            0.0033593052743905727,
            0.0004018498042592106,
            0.0,
            0.06062866562723496,
            0.04189159011820526,
            0.035760298313479766,
            0.0,
            0.022906477861613372,
            -6.661338147750939e-16,
            0.05381060158861223,
            0.030303104807413495,
            -2.7755575615628914e-17,
            0.00037616831626574587,
            0.008519216331381734,
            0.0,
            0.0
          ]
        },
        {
          "node_count": 25,
          "children_left": [
            1,
            2,
            -1,
            4,
            5,
            -1,
            -1,
            8,
            -1,
            -1,
            11,
            12,
            13,
            -1,
            -1,
            16,
            -1,
            -1,
            19,
            20,
            -1,
            -1,
            23,
            -1,
            -1
          ],
          "children_right": [
            10,
            3,
            -1,
            7,
            6,
            -1,
            -1,
            9,
            -1,
            -1,
            18,
            15,
            14,
            -1,
            -1,
            17,
            -1,
            -1,
            22,
            21,
            -1,
            -1,
            24,
            -1,
            -1
          ],
          "feature": [
            2,
            3,
            -2,
            2,
            3,
            -2,
            -2,
            0,
            -2,
            -2,
            2,
            0,
            1,
            -2,
            -2,
            3,
            -2,
            -2,
            0,
            0,
            -2,
            -2,
            0,
            -2,
            -2
          ],
          "threshold": [
            0.34649595618247986,
            0.4685577154159546,
            -2.0,
            0.18733122572302818,
            0.631657600402832,
            -2.0,
            -2.0,
            0.642889529466629,
            -2.0,
            -2.0,
            0.7880154848098755,
            0.20515578240156174,
            0.47755561769008636,
            -2.0,
            -2.0,
            0.9470638334751129,
            -2.0,
            -2.0,
            0.49468106031417847,
            0.3924509733915329,
            -2.0,
            -2.0,
            0.6597927808761597,
            -2.0,
            -2.0
          ],
          "value": [
            0.5949845714303172,
            0.29139898177255336,
            0.8187035102039255,
            0.2254859157186318,
            0.39012950060101614,
            0.36323976019359805,
            0.44390898141585244,
            0.12669976478920122,
            0.12620532161439946,
            0.1270293935724024,
            0.6831223232664424,
            0.7600571409191293,
            0.48275639861615394,
            0.6700902027249377,
            0.2017556924529783,
            0.8293823264948731,
            0.8809115752868384,
            0.3656190873671856,
            0.3625605830469132,
            0.5103060495731248,
            0.3978355125430505,
            0.6227765866031991,
            0.06706964999448994,
            0.10310443885564724,
            0.031034861133332647
          ],
          "value_shape": [
            25,
            1,
            1
          ],
          "n_node_samples": [
            22,
            5,
            1,
            4,
            2,
            1,
            1,
            2,
            1,
            1,
            17,
            12,
            3,
            2,
            1,
            9,
            8,
            1,
            5,
            3,
            2,
            1,
            2,
            1,
            1
          ],
          "weighted_n_node_samples": [
            40.0,
            9.0,
            1.0,
            8.0,
            3.0,
            2.0,
            1.0,
            5.0,
            2.0,
            3.0,
            31.0,
            25.0,
            5.0,
            3.0,
            2.0,
            20.0,
            18.0,
            2.0,
            6.0,
            4.0,
            2.0,
            2.0,
            2.0,
            1.0,
            1.0
          ],
          "impurity": [
            0.10267074565615764,
            0.04969572620798565,
            0.0,
            0.016806901494326267,
            0.001446116278356696,
            0.0,
            1.1102230246251565e-16,
            1.6298270207742993e-07,
            0.0,
            0.0,
            0.0835249753510725,
            0.06015575404933127,
            0.05782958431576904,
            0.008647755121611311,
            -2.7755575615628914e-17,
            0.03670738970716525,
            0.014233353752874489,
            -1.6653345369377348e-16,
            0.05347454245220354,
            0.01407639203702793,
            0.0028535406743893654,
            0.0,
            0.001298506008268173,
            0.0,
            7.589415207398531e-19
          ]
        },
        {
          "node_count": 23,
          "children_left": [
            1,
            2,
            3,
            4,
            -1,
            -1,
            7,
            -1,
            -1,
            10,
            11,
            -1,
            -1,
            14,
            -1,
            -1,
            17,
            -1,
            19,
            20,
            -1,
            -1,
            -1
          ],
          "children_right": [
            16,
            9,
            6,
            5,
            -1,
            -1,
            8,
            -1,
            -1,
            13,
            12,
            -1,
            -1,
            15,
            -1,
            -1,
            18,
            -1,
            22,
            21,
            -1,
            -1,
            -1
          ],
          "feature": [
            3,
            2,
            0,
            3,
            -2,
            -2,
            1,
            -2,
            -2,
            0,
            0,
            -2,
            -2,
            1,
            -2,
            -2,
            2,
            -2,
            3,
            2,
            -2,
            -2,
            -2
          ],
          "threshold": [
            0.8568241000175476,
            0.7880154848098755,
            0.9494883120059967,
            0.5888927280902863,
            -2.0,
            -2.0,
            0.1633273810148239,
            -2.0,
            -2.0,
            0.602004885673523,
            0.3924509733915329,
            -2.0,
            -2.0,
            0.8500984013080597,
            -2.0,
            -2.0,
            0.33567966520786285,
            -2.0,
            0.9107194244861603,
            0.6074836850166321,
            -2.0,
            -2.0,
            -2.0
          ],
          "value": [
            0.5624480458427772,
            0.5144430736473277,
            0.5701764003782183,
            0.6139056265300684,
            0.8170979716353671,
            0.5182856994216923,
            0.2057661824461343,
            0.36323976019359805,
            0.1270293935724024,
            0.29150976672376633,
            0.4407161454528257,
            0.3800293317360346,
            0.6227765866031991,
            0.0925679284183537,
            0.031034861133332647,
            0.21563406298839582,
            0.898482851210923,
            0.7827355919753762,
            0.9274196660198097,
            0.9834160769909213,
            0.9732647911186689,
            0.9935673628631737,
            0.871423255048698
          ],
          "value_shape": [
            23,
            1,
            1
          ],
          "n_node_samples": [
            28,
            24,
            19,
            17,
            7,
            10,
            2,
            1,
            1,
            5,
            3,
            2,
            1,
            2,
            1,
            1,
            4,
            1,
            3,
            2,
            1,
            1,
            1
          ],
          "weighted_n_node_samples": [
            40.0,
            35.0,
            28.0,
            25.0,
            8.0,
            17.0,
            3.0,
            1.0,
            2.0,
            7.0,
            4.0,
            3.0,
            1.0,
            3.0,
            2.0,
            1.0,
            5.0,
            1.0,
            4.0,
            2.0,
            1.0,
            1.0,
            2.0
          ],
          "impurity": [
            0.07487952558317301,
            0.06629805969682573,
            0.05725920739202439,
            0.044794814565915164,
            0.006896002447342897,
            0.03405714199237758,
            0.01239896384429294,
            0.0,
            0.0,
            0.04032939474618752,
            0.012951028526882291,
            0.0025364805994571304,
            -5.551115123125783e-17,
            0.007572636739005895,
            0.0,
            0.0,
            0.00589905488039455,
            0.0,
            0.003187122344075588,
            0.00010304860485987888,
            0.0,
            1.1102230246251565e-16,
            -1.1102230246251565e-16
          ]
        },
        {
          "node_count": 23,
          "children_left": [
            1,
            2,
            3,
            4,
            -1,
            -1,
            7,
            -1,
            -1,
            10,
            11,
            -1,
            -1,
            14,
            -1,
            -1,
            17,
            18,
            -1,
            20,
            -1,
            -1,
            -1
          ],
          "children_right": [
            16,
            9,
            6,
            5,
            -1,
            -1,
            8,
            -1,
            -1,
            13,
            12,
            -1,
            -1,
            15,
            -1,
            -1,
            22,
            19,
            -1,
            21,
            -1,
            -1,
            -1
          ],
          "feature": [
            3,
            3,
            2,
            0,
            -2,
            -2,
            0,
            -2,
            -2,
            3,
            0,
            -2,
            -2,
            1,
            -2,
            -2,
            3,
            2,
            -2,
            1,
            -2,
            -2,
            -2
          ],
          "threshold": [
            0.8568241000175476,
            0.5297271013259888,
            0.6747432798147202,
            0.9060189723968506,
            -2.0,
            -2.0,
            0.38732388615608215,
            -2.0,
            -2.0,
            0.66860431432724,
            0.44106869399547577,
            -2.0,
            -2.0,
            0.14680026471614838,
            -2.0,
            -2.0,
            0.9470638334751129,
            0.33567966520786285,
            -2.0,
            0.010266255820170045,
            -2.0,
            -2.0,
            -2.0
          ],
          "value": [
            0.5331280317438095,
            0.4848371909967702,
            0.6397729987632811,
            0.7614002082761457,
            0.7232411679682794,
            0.9521954098154773,
            0.45733218449398416,
            0.4512540549640984,
            0.4755665730836416,
            0.41747379631567855,
            0.2726569000712579,
            0.33479049155139756,
            0.19809659029509025,
            0.5502226178730641,
            0.8611628527316416,
            0.44657587292020495,
            0.7607848524084224,
            0.9188511584249172,
            0.7827355919753762,
            0.9528800500373025,
            0.871423255048698,
            0.9800323150335039,
            0.3656190873671856
          ],
          "value_shape": [
            23,
            1,
            1
          ],
          "n_node_samples": [
            30,
            25,
            8,
            6,
            5,
            1,
            2,
            1,
            1,
            17,
            9,
            4,
            5,
            8,
            2,
            6,
            5,
            4,
            1,
            3,
            1,
            2,
            1
          ],
          "weighted_n_node_samples": [
            40.0,
            33.0,
            10.0,
            6.0,
            5.0,
            1.0,
            4.0,
            3.0,
            1.0,
            23.0,
            11.0,
            6.0,
            5.0,
            12.0,
            3.0,
            9.0,
            7.0,
            5.0,
            1.0,
            4.0,
            1.0,
            3.0,
            2.0
          ],
          "impurity": [
            0.07568838142714318,
            0.06418993592449199,
            0.026701218341635746,
            0.007445198017513088,
            0.0001975634777116042,
            -2.220446049250313e-16,
            0.00011083097574612899,
            -5.551115123125783e-17,
            2.7755575615628914e-17,
            0.06551454944005097,
            0.040702102094939074,
            0.04988181739177425,
            0.01949450411655375,
            0.05141277089681717,
            0.0017280538833724934,
            0.025003752277340002,
            0.06707397152997274,
            0.006456210300012644,
            0.0,
            0.0022804355531784726,
            0.0,
            9.159875987529986e-05,
            1.3877787807814457e-16
          ]
        },
        {
          "node_count": 27,
          "children_left": [
            1,
            2,
            3,
            4,
            -1,
            -1,
            -1,
            8,
            9,
            -1,
            -1,
            -1,
            13,
            14,
            15,
            -1,
            -1,
            18,
            -1,
            -1,
            21,
            22,
            -1,
            -1,
            25,
            -1,
            -1
          ],
          "children_right": [
            12,
            7,
            6,
            5,
            -1,
            -1,
            -1,
            11,
            10,
            -1,
            -1,
            -1,
            20,
            17,
            16,
            -1,
            -1,
            19,
            -1,
            -1,
            24,
            23,
            -1,
            -1,
            26,
            -1,
            -1
          ],
          "feature": [
            3,
            2,
            0,
            3,
            -2,
            -2,
            -2,
            3,
            0,
            -2,
            -2,
            -2,
            3,
            1,
            2,
            -2,
            -2,
            3,
            -2,
            -2,
            2,
            1,
            -2,
            -2,
            2,
            -2,
            -2
          ],
          "threshold": [
            0.5888927280902863,
            0.8038252294063568,
            0.9060189723968506,
            0.531877875328064,
            -2.0,
            -2.0,
            -2.0,
            0.4965340346097946,
            0.38732388615608215,
            -2.0,
            -2.0,
            -2.0,
            0.7870443761348724,
            0.5575579106807709,
            0.2175445593893528,
            -2.0,
            -2.0,
            0.7055476307868958,
            -2.0,
            -2.0,
            0.4468945860862732,
            0.7881228923797607,
            -2.0,
            -2.0,
            0.5988559126853943,
            -2.0,
            -2.0
          ],
          "value": [
            0.5620549613201519,
            0.6891931809481353,
            0.8010882236495368,
            0.77590369262188,
            0.7323014202386099,
            0.8369468739584581,
            0.9521954098154773,
            0.42810474797819836,
            0.45733218449398416,
            0.4512540549640984,
            0.4755665730836416,
            0.3696498749466268,
            0.4349167416921686,
            0.3185629077193681,
            0.22812538885515446,
            0.3331309597730866,
            0.14412093212080873,
            0.5220473251638489,
            0.628811202734139,
            0.2017556924529783,
            0.6510024333559407,
            0.7395430600754574,
            0.6811126273146546,
            0.9732647911186689,
            0.42965086655714885,
            0.3656190873671856,
            0.49368264574711207
          ],
          "value_shape": [
            27,
            1,
            1
          ],
          "n_node_samples": [
            23,
            10,
            7,
            6,
            4,
            2,
            1,
            3,
            2,
            1,
            1,
            1,
            13,
            7,
            4,
            2,
            2,
            3,
            2,
            1,
            6,
            4,
            3,
            1,
            2,
            1,
            1
          ],
          "weighted_n_node_samples": [
            40.0,
            20.0,
            14.0,
            12.0,
            7.0,
            5.0,
            2.0,
            6.0,
            4.0,
            3.0,
            1.0,
            2.0,
            20.0,
            13.0,
            9.0,
            4.0,
            5.0,
            4.0,
            3.0,
            1.0,
            7.0,
            5.0,
            4.0,
            1.0,
            2.0,
            1.0,
            1.0
          ],
          "impurity": [
            0.06362542261504911,
            0.03450400201968873,
            0.006792555201937001,
            0.0034848235140121364,
            7.275593923417034e-05,
            0.0018738267112322626,
            6.661338147750939e-16,
            0.0017823734077326014,
            0.00011083097574621226,
            -5.551115123125783e-17,
            2.7755575615628914e-17,
            2.7755575615628914e-17,
            0.0604185894300627,
            0.03557230213850357,
            0.009578331740846602,
            0.0003021799542540782,
            0.00112156847984737,
            0.03425020154930336,
            7.283318369555314e-05,
            -1.3877787807814457e-16,
            0.03472626956654579,
            0.0195387008650747,
            0.007352798718269771,
            2.220446049250313e-16,
            0.0041000687462323104,
            0.0,
            2.7755575615628914e-17
          ]
        }
      ],
      "output": [
        0.3140257299401664,
        0.4981390055698192,
        0.7260046446220674,
        0.6663519988139349,
        0.8683522523587603,
        0.708519625002056,
        0.6489154419127063,
        0.42632540183427603,
        0.48710318413886267,
        0.8018458330021316,
        0.4670625686199612,
        0.5628176357952868,
        0.37734328040793386,
        0.8222016187989041,
        0.28051230115548825,
        0.6559514913486988,
        0.4611100016500299,
        0.6504673738878262,
        0.5942992231547455,
        0.7380102105880205,
        0.5615723700771711,
        0.5876325552539536,
        0.5628176357952868,
        0.750451823604603,
        0.5272577478771618,
        0.22562960953070926,
        0.3241893661297942,
        0.7391356149764416,
        0.5590786604535204,
        0.34116622808399877,
        0.5649624101263361,
        0.24992155326453952,
        0.34336275485545353,
        0.7618071009332648,
        0.4244084443751028,
        0.41732784312262716,
        0.6550155308798079,
        0.33336110615373316,
        0.5061372762350761,
        0.7357212494035756
      ],
      "output_shape": [
        40,
        1,
        1
      ],
      "framework_predict_sanity": [
        0.3140257299401664,
        0.4981390055698192,
        0.7260046446220674,
        0.6663519988139349,
        0.8683522523587603,
        0.708519625002056,
        0.6489154419127063,
        0.42632540183427603,
        0.48710318413886267,
        0.8018458330021316,
        0.4670625686199612,
        0.5628176357952868,
        0.37734328040793386,
        0.8222016187989041,
        0.28051230115548825,
        0.6559514913486988,
        0.4611100016500299,
        0.6504673738878262,
        0.5942992231547455,
        0.7380102105880205,
        0.5615723700771711,
        0.5876325552539536,
        0.5628176357952868,
        0.750451823604603,
        0.5272577478771618,
        0.22562960953070926,
        0.3241893661297942,
        0.7391356149764416,
        0.5590786604535204,
        0.34116622808399877,
        0.5649624101263361,
        0.24992155326453952,
        0.34336275485545353,
        0.7618071009332648,
        0.4244084443751028,
        0.41732784312262716,
        0.6550155308798079,
        0.33336110615373316,
        0.5061372762350761,
        0.7357212494035756
      ]
    },
    "et_regressor": {
      "n_estimators": 5,
      "n_features_in": 4,
      "n_outputs": 1,
      "n_classes": null,
      "trees": [
        {
          "node_count": 23,
          "children_left": [
            1,
            2,
            3,
            -1,
            -1,
            6,
            7,
            -1,
            -1,
            10,
            -1,
            -1,
            13,
            14,
            15,
            -1,
            -1,
            18,
            -1,
            -1,
            21,
            -1,
            -1
          ],
          "children_right": [
            12,
            5,
            4,
            -1,
            -1,
            9,
            8,
            -1,
            -1,
            11,
            -1,
            -1,
            20,
            17,
            16,
            -1,
            -1,
            19,
            -1,
            -1,
            22,
            -1,
            -1
          ],
          "feature": [
            1,
            3,
            0,
            -2,
            -2,
            3,
            3,
            -2,
            -2,
            3,
            -2,
            -2,
            2,
            2,
            0,
            -2,
            -2,
            0,
            -2,
            -2,
            3,
            -2,
            -2
          ],
          "threshold": [
            0.844282650613392,
            0.17630192884647072,
            0.650320812049381,
            -2.0,
            -2.0,
            0.8447203249952856,
            0.3975013660103187,
            -2.0,
            -2.0,
            0.9438141037933613,
            -2.0,
            -2.0,
            0.8902831306945933,
            0.456815832133495,
            0.12903962816208586,
            -2.0,
            -2.0,
            0.4908618052262778,
            -2.0,
            -2.0,
            0.6467589236706554,
            -2.0,
            -2.0
          ],
          "value": [
            0.5714060255145527,
            0.5432476728850698,
            0.6707102492622741,
            0.6043340048360264,
            0.7370864936885216,
            0.534457150376297,
            0.4994364825463272,
            0.7516680260009383,
            0.465041272075244,
            0.7533363243136084,
            0.8825754032957492,
            0.3656190873671856,
            0.6683959067938823,
            0.7757541747442739,
            0.8853939974481616,
            0.7307217914103388,
            0.9627301004670732,
            0.693524307716358,
            0.4755665730836416,
            0.7661768859272634,
            0.2926419689675113,
            0.3696498749466268,
            0.21563406298839582
          ],
          "value_shape": [
            23,
            1,
            1
          ],
          "n_node_samples": [
            40,
            31,
            2,
            1,
            1,
            29,
            25,
            3,
            22,
            4,
            3,
            1,
            9,
            7,
            3,
            1,
            2,
            4,
            1,
            3,
            2,
            1,
            1
          ],
          "weighted_n_node_samples": [
            40.0,
            31.0,
            2.0,
            1.0,
            1.0,
            29.0,
            25.0,
            3.0,
            22.0,
            4.0,
            3.0,
            1.0,
            9.0,
            7.0,
            3.0,
            1.0,
            2.0,
            4.0,
            1.0,
            3.0,
            2.0,
            1.0,
            1.0
          ],
          "impurity": [
            0.07506275543620317,
            0.0743544127270489,
            0.0044058058241329134,
            0.0,
            -2.220446049250313e-16,
            0.07798071864977557,
            0.07265211369882763,
            0.002434923952918333,
            0.07236859749989771,
            0.05571111196436407,
            0.007470524474542883,
            1.3877787807814457e-16,
            0.0653644901963788,
            0.030479621305088078,
            0.012035732131720156,
            0.0,
            0.00011097970712503624,
            0.028535119111780805,
            0.0,
            0.016933236999607693,
            0.005930217583288405,
            0.0,
            0.0
          ]
        },
        {
          "node_count": 17,
          "children_left": [
            1,
            2,
            -1,
            -1,
            5,
            6,
            7,
            -1,
            -1,
            10,
            -1,
            -1,
            13,
            14,
            -1,
            -1,
            -1
          ],
          "children_right": [
            4,
            3,
            -1,
            -1,
            12,
            9,
            8,
            -1,
            -1,
            11,
            -1,
            -1,
            16,
            15,
            -1,
            -1,
            -1
          ],
          "feature": [
            3,
            0,
            -2,
            -2,
            3,
            3,
            1,
            -2,
            -2,
            3,
            -2,
            -2,
            3,
            2,
            -2,
            -2,
            -2
          ],
          "threshold": [
            0.1919888382178127,
            0.5282555968501492,
            -2.0,
            -2.0,
            0.8825687046641902,
            0.6199187697048459,
            0.42540699433880536,
            -2.0,
            -2.0,
            0.699645773453058,
            -2.0,
            -2.0,
            0.9423610124861589,
            0.3662581194985319,
            -2.0,
            -2.0,
            -2.0
          ],
          "value": [
            0.5714060255145527,
            0.6707102492622741,
            0.6043340048360264,
            0.7370864936885216,
            0.5661794874225673,
            0.5311578919298318,
            0.5723482246159174,
            0.3658342533082526,
            0.6239767174428335,
            0.4677881493358542,
            0.3778813316116136,
            0.5239799104135047,
            0.7973220176746205,
            0.9052477502514791,
            0.7827355919753762,
            0.9460851363435135,
            0.3656190873671856
          ],
          "value_shape": [
            17,
            1,
            1
          ],
          "n_node_samples": [
            40,
            2,
            1,
            1,
            38,
            33,
            20,
            4,
            16,
            13,
            5,
            8,
            5,
            4,
            1,
            3,
            1
          ],
          "weighted_n_node_samples": [
            40.0,
            2.0,
            1.0,
            1.0,
            38.0,
            33.0,
            20.0,
            4.0,
            16.0,
            13.0,
            5.0,
            8.0,
            5.0,
            4.0,
            1.0,
            3.0,
            1.0
          ],
          "impurity": [
            0.07506275543620317,
            0.0044058058241329134,
            0.0,
            -2.220446049250313e-16,
            0.07823520824935165,
            0.07284210284163772,
            0.07637821336165879,
            0.07117696207159091,
            0.06435101982628055,
            0.06077598775473195,
            0.0499259342552609,
            0.05934773475808175,
            0.05230785445328645,
            0.007144999305350175,
            0.0,
            0.002855897329147594,
            1.3877787807814457e-16
          ]
        },
        {
          "node_count": 17,
          "children_left": [
            1,
            2,
            3,
            4,
            -1,
            -1,
            7,
            -1,
            -1,
            10,
            11,
            -1,
            -1,
            14,
            -1,
            -1,
            -1
          ],
          "children_right": [
            16,
            9,
            6,
            5,
            -1,
            -1,
            8,
            -1,
            -1,
            13,
            12,
            -1,
            -1,
            15,
            -1,
            -1,
            -1
          ],
          "feature": [
            1,
            1,
            3,
            2,
            -2,
            -2,
            3,
            -2,
            -2,
            2,
            1,
            -2,
            -2,
            2,
            -2,
            -2,
            -2
          ],
          "threshold": [
            0.9596318369528357,
            0.8343723887380453,
            0.38260188492748587,
            0.4184186719541508,
            -2.0,
            -2.0,
            0.6942023819625898,
            -2.0,
            -2.0,
            0.5710552219512905,
            0.9511111516581441,
            -2.0,
            -2.0,
            0.7274305726653584,
            -2.0,
            -2.0,
            -2.0
          ],
          "value": [
            0.5714060255145527,
            0.5805283835280438,
            0.5432476728850698,
            0.7192849153054726,
            0.7523817943763801,
            0.6696395966991113,
            0.5093943570349923,
            0.41698018435571493,
            0.635413683415825,
            0.724991137269568,
            0.8420697448220331,
            0.8853939974481616,
            0.7120969869436473,
            0.6079125297171029,
            0.9455532358421244,
            0.495365627675429,
            0.21563406298839582
          ],
          "value_shape": [
            17,
            1,
            1
          ],
          "n_node_samples": [
            40,
            39,
            31,
            5,
            3,
            2,
            26,
            15,
            11,
            8,
            4,
            3,
            1,
            4,
            1,
            3,
            1
          ],
          "weighted_n_node_samples": [
            40.0,
            39.0,
            31.0,
            5.0,
            3.0,
            2.0,
            26.0,
            15.0,
            11.0,
            8.0,
            4.0,
            3.0,
            1.0,
            4.0,
            1.0,
            3.0,
            1.0
          ],
          "impurity": [
            0.07506275543620317,
            0.07365874484397639,
            0.07435441272704918,
            0.004796275488876511,
            0.0024120704184830144,
            0.004264820328587826,
            0.08062548621746435,
            0.07447287305816513,
            0.061488570842309076,
            0.04470787045756075,
            0.014657771695627764,
            0.012035732131720045,
            -2.220446049250313e-16,
            0.047343168526645885,
            0.0,
            0.012457004065482197,
            4.697631172945194e-15
          ]
        },
        {
          "node_count": 23,
          "children_left": [
            1,
            2,
            3,
            4,
            -1,
            -1,
            -1,
            -1,
            9,
            10,
            11,
            -1,
            -1,
            14,
            -1,
            -1,
            17,
            18,
            -1,
            -1,
            21,
            -1,
            -1
          ],
          "children_right": [
            8,
            7,
            6,
            5,
            -1,
            -1,
            -1,
            -1,
            16,
            13,
            12,
            -1,
            -1,
            15,
            -1,
            -1,
            20,
            19,
            -1,
            -1,
            22,
            -1,
            -1
          ],
          "feature": [
            3,
            3,
            2,
            1,
            -2,
            -2,
            -2,
            -2,
            2,
            2,
            1,
            -2,
            -2,
            1,
            -2,
            -2,
            2,
            1,
            -2,
            -2,
            2,
            -2,
            -2
          ],
          "threshold": [
            0.26670961331333826,
            0.1995750938592959,
            0.6836734508343956,
            0.4794892135559244,
            -2.0,
            -2.0,
            -2.0,
            -2.0,
            0.7372753329489978,
            0.6050495857652748,
            0.8513976297784952,
            -2.0,
            -2.0,
            0.23923436624875397,
            -2.0,
            -2.0,
            0.8355642206845545,
            0.14986836427029165,
            -2.0,
            -2.0,
            0.9652640237378725,
            -2.0,
            -2.0
          ],
          "value": [
            0.5714060255145527,
            0.6565308103161449,
            0.7017718696242707,
            0.7342511578870189,
            0.7370864936885216,
            0.7328334899862676,
            0.6043340048360264,
            0.4755665730836416,
            0.5592453419714679,
            0.595809082388774,
            0.549803760806106,
            0.4916775310731957,
            0.8791857292925979,
            0.9025112262732264,
            0.8809902214887777,
            0.9455532358421244,
            0.4891648395049648,
            0.6271903475966013,
            0.772806697362564,
            0.3359576480646757,
            0.35113933141332837,
            0.408520418669424,
            0.23637715690113703
          ],
          "value_shape": [
            23,
            1,
            1
          ],
          "n_node_samples": [
            40,
            5,
            4,
            3,
            1,
            2,
            1,
            1,
            35,
            23,
            20,
            17,
            3,
            3,
            2,
            1,
            12,
            6,
            4,
            2,
            6,
            4,
            2
          ],
          "weighted_n_node_samples": [
            40.0,
            5.0,
            4.0,
            3.0,
            1.0,
            2.0,
            1.0,
            1.0,
            35.0,
            23.0,
            20.0,
            17.0,
            3.0,
            3.0,
            2.0,
            1.0,
            12.0,
            6.0,
            4.0,
            2.0,
            6.0,
            4.0,
            2.0
          ],
          "impurity": [
            0.07506275543620317,
            0.010722979234899177,
            0.0031699568070172046,
            6.9924118041297945e-06,
            0.0,
            4.459270875889487e-06,
            -1.1102230246251565e-16,
            -1.942890293094024e-16,
            0.08307109424250897,
            0.08071116671744788,
            0.0764433225728759,
            0.06493246358300903,
            0.014033310381293407,
            0.0009873251917733583,
            9.152684686597468e-05,
            1.1102230246251565e-16,
            0.0801206065390864,
            0.09479236925376866,
            0.032087236928174945,
            0.09297790598997717,
            0.027346762056496096,
            0.022261566873052863,
            0.017761617375232623
          ]
        },
        {
          "node_count": 23,
          "children_left": [
            1,
            2,
            3,
            4,
            -1,
            -1,
            7,
            -1,
            -1,
            -1,
            11,
            12,
            13,
            -1,
            -1,
            16,
            -1,
            -1,
            19,
            -1,
            21,
            -1,
            -1
          ],
          "children_right": [
            10,
            9,
            6,
            5,
            -1,
            -1,
            8,
            -1,
            -1,
            -1,
            18,
            15,
            14,
            -1,
            -1,
            17,
            -1,
            -1,
            20,
            -1,
            22,
            -1,
            -1
          ],
          "feature": [
            3,
            0,
            2,
            0,
            -2,
            -2,
            0,
            -2,
            -2,
            -2,
            3,
            1,
            2,
            -2,
            -2,
            0,
            -2,
            -2,
            3,
            -2,
            2,
            -2,
            -2
          ],
          "threshold": [
            0.7246892937501568,
            0.9863421107933456,
            0.8746148017670407,
            0.6148193243683967,
            -2.0,
            -2.0,
            0.5372841525435911,
            -2.0,
            -2.0,
            -2.0,
            0.8194345777540949,
            0.3587188829217468,
            0.5284941203178606,
            -2.0,
            -2.0,
            0.3773476525452484,
            -2.0,
            -2.0,
            0.8542278392054766,
            -2.0,
            0.4733375398572075,
            -2.0,
            -2.0
          ],
          "value": [
            0.5714060255145527,
            0.5487160623086836,
            0.5637763004778363,
            0.6030531291203608,
            0.541369542779277,
            0.6990053745398249,
            0.38310288872222353,
            0.4531025011888676,
            0.10310443885564724,
            0.1270293935724024,
            0.6312250194209345,
            0.492636495902013,
            0.7503352789444857,
            0.6982963755517612,
            0.8023741823372101,
            0.32083730720703135,
            0.2017556924529783,
            0.38037811458405785,
            0.7467154556867023,
            0.49368264574711207,
            0.7973220176746205,
            0.7072064901537436,
            0.9324953089559358
          ],
          "value_shape": [
            23,
            1,
            1
          ],
          "n_node_samples": [
            40,
            29,
            28,
            23,
            14,
            9,
            5,
            4,
            1,
            1,
            11,
            5,
            2,
            1,
            1,
            3,
            1,
            2,
            6,
            1,
            5,
            3,
            2
          ],
          "weighted_n_node_samples": [
            40.0,
            29.0,
            28.0,
            23.0,
            14.0,
            9.0,
            5.0,
            4.0,
            1.0,
            1.0,
            11.0,
            5.0,
            2.0,
            1.0,
            1.0,
            3.0,
            1.0,
            2.0,
            6.0,
            1.0,
            5.0,
            3.0,
            2.0
          ],
          "impurity": [
            0.07506275543620317,
            0.07349849295380162,
            0.06954592669308651,
            0.0696748006727621,
            0.048897107848705046,
            0.0868701441608617,
            0.02921394603738134,
            0.012017703819324266,
            1.3877787807814457e-17,
            -8.430756093247282e-16,
            0.07425111735981488,
            0.060466031147099364,
            0.002708047466317254,
            0.0,
            -1.1102230246251565e-16,
            0.0251839505103192,
            0.0,
            0.027140602536154163,
            0.05639499929225744,
            0.0,
            0.052307854453286895,
            0.06439120615893046,
            0.0037297957684483407
          ]
        }
      ],
      "output": [
        0.4635736178861496,
        0.5628817545059062,
        0.8100583838380983,
        0.5393362158973626,
        0.8338752458747175,
        0.6322147223345249,
        0.49929810231236543,
        0.49117762706449863,
        0.6408860923866353,
        0.8761202907410179,
        0.45858997237900906,
        0.507809049545253,
        0.507809049545253,
        0.8555119506999602,
        0.34882931392875566,
        0.6638974745816857,
        0.5131071758754271,
        0.5124063899762105,
        0.699921739982778,
        0.6322147223345249,
        0.42430514158017274,
        0.57818484180285,
        0.5393362158973626,
        0.7045611724771239,
        0.45858997237900906,
        0.5081922392956586,
        0.4877077230704464,
        0.7028591078133758,
        0.5047155984948827,
        0.49721155715257304,
        0.5840964507300053,
        0.45858997237900906,
        0.45618055671833685,
        0.732529329996354,
        0.3733125268769619,
        0.43569437563097874,
        0.6048022307972936,
        0.3198768767598713,
        0.6399231491208697,
        0.7960530899188341
      ],
      "output_shape": [
        40,
        1,
        1
      ],
      "framework_predict_sanity": [
        0.4635736178861496,
        0.5628817545059062,
        0.8100583838380983,
        0.5393362158973626,
        0.8338752458747175,
        0.6322147223345249,
        0.49929810231236543,
        0.49117762706449863,
        0.6408860923866353,
        0.8761202907410179,
        0.45858997237900906,
        0.507809049545253,
        0.507809049545253,
        0.8555119506999602,
        0.34882931392875566,
        0.6638974745816857,
        0.5131071758754271,
        0.5124063899762105,
        0.699921739982778,
        0.6322147223345249,
        0.42430514158017274,
        0.57818484180285,
        0.5393362158973626,
        0.7045611724771239,
        0.45858997237900906,
        0.5081922392956586,
        0.4877077230704464,
        0.7028591078133758,
        0.5047155984948827,
        0.49721155715257304,
        0.5840964507300053,
        0.45858997237900906,
        0.45618055671833685,
        0.732529329996354,
        0.3733125268769619,
        0.43569437563097874,
        0.6048022307972936,
        0.3198768767598713,
        0.6399231491208697,
        0.7960530899188341
      ]
    },
    "rf_classifier": {
      "n_estimators": 5,
      "n_features_in": 4,
      "n_outputs": 1,
      "n_classes": 2,
      "trees": [
        {
          "node_count": 13,
          "children_left": [
            1,
            2,
            3,
            -1,
            5,
            -1,
            -1,
            -1,
            9,
            -1,
            11,
            -1,
            -1
          ],
          "children_right": [
            8,
            7,
            4,
            -1,
            6,
            -1,
            -1,
            -1,
            10,
            -1,
            12,
            -1,
            -1
          ],
          "feature": [
            1,
            2,
            2,
            -2,
            3,
            -2,
            -2,
            -2,
            3,
            -2,
            0,
            -2,
            -2
          ],
          "threshold": [
            0.5901238322257996,
            0.30581945180892944,
            0.017927758395671844,
            -2.0,
            0.6005435883998871,
            -2.0,
            -2.0,
            -2.0,
            0.7055476307868958,
            -2.0,
            0.4910217896103859,
            -2.0,
            -2.0
          ],
          "value": [
            0.475,
            0.525,
            0.6923076923076923,
            0.3076923076923077,
            0.42857142857142855,
            0.5714285714285714,
            1.0,
            0.0,
            0.2727272727272727,
            0.7272727272727273,
            0.0,
            1.0,
            0.75,
            0.25,
            1.0,
            0.0,
            0.07142857142857142,
            0.9285714285714286,
            0.0,
            1.0,
            0.5,
            0.5,
            1.0,
            0.0,
            0.0,
            1.0
          ],
          "value_shape": [
            13,
            1,
            2
          ],
          "n_node_samples": [
            23,
            14,
            8,
            1,
            7,
            4,
            3,
            6,
            9,
            7,
            2,
            1,
            1
          ],
          "weighted_n_node_samples": [
            40.0,
            26.0,
            14.0,
            3.0,
            11.0,
            7.0,
            4.0,
            12.0,
            14.0,
            12.0,
            2.0,
            1.0,
            1.0
          ],
          "impurity": [
            0.49875,
            0.42603550295857984,
            0.4897959183673469,
            0.0,
            0.39669421487603307,
            0.0,
            0.375,
            0.0,
            0.13265306122448983,
            0.0,
            0.5,
            0.0,
            0.0
          ]
        },
        {
          "node_count": 9,
          "children_left": [
            1,
            2,
            -1,
            -1,
            5,
            -1,
            7,
            -1,
            -1
          ],
          "children_right": [
            4,
            3,
            -1,
            -1,
            6,
            -1,
            8,
            -1,
            -1
          ],
          "feature": [
            2,
            0,
            -2,
            -2,
            1,
            -2,
            0,
            -2,
            -2
          ],
          "threshold": [
            0.4174651652574539,
            0.45088207721710205,
            -2.0,
            -2.0,
            0.5901238322257996,
            -2.0,
            0.20515578240156174,
            -2.0,
            -2.0
          ],
          "value": [
            0.525,
            0.475,
            0.1875,
            0.8125,
            1.0,
            0.0,
            0.0,
            1.0,
            0.75,
            0.25,
            1.0,
            0.0,
            0.25,
            0.75,
            1.0,
            0.0,
            0.0,
            1.0
          ],
          "value_shape": [
            9,
            1,
            2
          ],
          "n_node_samples": [
            22,
            8,
            2,
            6,
            14,
            9,
            5,
            1,
            4
          ],
          "weighted_n_node_samples": [
            40.0,
            16.0,
            3.0,
            13.0,
            24.0,
            16.0,
            8.0,
            2.0,
            6.0
          ],
          "impurity": [
            0.49875,
            0.3046875,
            0.0,
            0.0,
            0.375,
            0.0,
            0.375,
            0.0,
            0.0
          ]
        },
        {
          "node_count": 9,
          "children_left": [
            1,
            2,
            -1,
            4,
            -1,
            -1,
            7,
            -1,
            -1
          ],
          "children_right": [
            6,
            3,
            -1,
            5,
            -1,
            -1,
            8,
            -1,
            -1
          ],
          "feature": [
            0,
            3,
            -2,
            1,
            -2,
            -2,
            3,
            -2,
            -2
          ],
          "threshold": [
            0.5199806690216064,
            0.24713020026683807,
            -2.0,
            0.5901238322257996,
            -2.0,
            -2.0,
            0.8164395987987518,
            -2.0,
            -2.0
          ],
          "value": [
            0.425,
            0.575,
            0.8125,
            0.1875,
            0.0,
            1.0,
            0.8666666666666667,
            0.13333333333333333,
            1.0,
            0.0,
            0.0,
            1.0,
            0.16666666666666666,
            0.8333333333333334,
            0.0,
            1.0,
            1.0,
            0.0
          ],
          "value_shape": [
            9,
            1,
            2
          ],
          "n_node_samples": [
            28,
            14,
            1,
            13,
            11,
            2,
            14,
            12,
            2
          ],
          "weighted_n_node_samples": [
            40.0,
            16.0,
            1.0,
            15.0,
            13.0,
            2.0,
            24.0,
            20.0,
            4.0
          ],
          "impurity": [
            0.48875,
            0.3046875,
            0.0,
            0.23111111111111116,
            0.0,
            0.0,
            0.2777777777777778,
            0.0,
            0.0
          ]
        },
        {
          "node_count": 13,
          "children_left": [
            1,
            2,
            3,
            4,
            -1,
            -1,
            -1,
            -1,
            9,
            10,
            -1,
            -1,
            -1
          ],
          "children_right": [
            8,
            7,
            6,
            5,
            -1,
            -1,
            -1,
            -1,
            12,
            11,
            -1,
            -1,
            -1
          ],
          "feature": [
            1,
            0,
            2,
            1,
            -2,
            -2,
            -2,
            -2,
            3,
            3,
            -2,
            -2,
            -2
          ],
          "threshold": [
            0.6381474435329437,
            0.8280231058597565,
            0.29982952773571014,
            0.18985971063375473,
            -2.0,
            -2.0,
            -2.0,
            -2.0,
            0.5573277473449707,
            0.5297271013259888,
            -2.0,
            -2.0,
            -2.0
          ],
          "value": [
            0.6,
            0.4,
            0.8214285714285714,
            0.17857142857142858,
            0.92,
            0.08,
            0.6,
            0.4,
            1.0,
            0.0,
            0.5,
            0.5,
            1.0,
            0.0,
            0.0,
            1.0,
            0.08333333333333333,
            0.9166666666666666,
            0.2,
            0.8,
            0.0,
            1.0,
            1.0,
            0.0,
            0.0,
            1.0
          ],
          "value_shape": [
            13,
            1,
            2
          ],
          "n_node_samples": [
            30,
            21,
            18,
            5,
            1,
            4,
            13,
            3,
            9,
            5,
            4,
            1,
            4
          ],
          "weighted_n_node_samples": [
            40.0,
            28.0,
            25.0,
            5.0,
            1.0,
            4.0,
            20.0,
            3.0,
            12.0,
            5.0,
            4.0,
            1.0,
            7.0
          ],
          "impurity": [
            0.48,
            0.29336734693877553,
            0.1472,
            0.48,
            0.0,
            0.5,
            0.0,
            0.0,
            0.1527777777777778,
            0.31999999999999995,
            0.0,
            0.0,
            0.0
          ]
        },
        {
          "node_count": 11,
          "children_left": [
            1,
            -1,
            3,
            4,
            -1,
            -1,
            7,
            -1,
            9,
            -1,
            -1
          ],
          "children_right": [
            2,
            -1,
            6,
            5,
            -1,
            -1,
            8,
            -1,
            10,
            -1,
            -1
          ],
          "feature": [
            3,
            -2,
            0,
            1,
            -2,
            -2,
            3,
            -2,
            0,
            -2,
            -2
          ],
          "threshold": [
            0.1946469321846962,
            -2.0,
            0.40960530936717987,
            0.9127581119537354,
            -2.0,
            -2.0,
            0.6467617750167847,
            -2.0,
            0.7429867088794708,
            -2.0,
            -2.0
          ],
          "value": [
            0.525,
            0.475,
            0.0,
            1.0,
            0.6,
            0.4,
            0.9444444444444444,
            0.05555555555555555,
            1.0,
            0.0,
            0.0,
            1.0,
            0.23529411764705882,
            0.7647058823529411,
            0.0,
            1.0,
            0.5714285714285714,
            0.42857142857142855,
            1.0,
            0.0,
            0.0,
            1.0
          ],
          "value_shape": [
            11,
            1,
            2
          ],
          "n_node_samples": [
            23,
            2,
            21,
            9,
            8,
            1,
            12,
            7,
            5,
            3,
            2
          ],
          "weighted_n_node_samples": [
            40.0,
            5.0,
            35.0,
            18.0,
            17.0,
            1.0,
            17.0,
            10.0,
            7.0,
            4.0,
            3.0
          ],
          "impurity": [
            0.49875,
            0.0,
            0.48,
            0.1049382716049383,
            0.0,
            0.0,
            0.3598615916955017,
            0.0,
            0.4897959183673469,
            0.0,
            0.0
          ]
        }
      ],
      "output": [
        0.8,
        0.2,
        0.25,
        0.75,
        0.0,
        1.0,
        0.0,
        1.0,
        1.0,
        0.0,
        0.5,
        0.5,
        0.0,
        1.0,
        1.0,
        0.0,
        0.6,
        0.4,
        0.2,
        0.8,
        0.95,
        0.05,
        0.1,
        0.9,
        0.85,
        0.15,
        1.0,
        0.0,
        0.0,
        1.0,
        0.4,
        0.6,
        1.0,
        0.0,
        1.0,
        0.0,
        0.75,
        0.25,
        0.7,
        0.3,
        0.2,
        0.8,
        1.0,
        0.0,
        0.1,
        0.9,
        0.0,
        1.0,
        0.2,
        0.8,
        0.0,
        1.0,
        0.0,
        1.0,
        0.2,
        0.8,
        0.0,
        1.0,
        1.0,
        0.0,
        0.0,
        1.0,
        1.0,
        0.0,
        1.0,
        0.0,
        0.0,
        1.0,
        0.2,
        0.8,
        0.6,
        0.4,
        0.6,
        0.4,
        0.8,
        0.2,
        1.0,
        0.0,
        0.0,
        1.0
      ],
      "output_shape": [
        40,
        1,
        2
      ],
      "framework_predict_sanity": [
        0.0,
        1.0,
        1.0,
        1.0,
        0.0,
        0.0,
        1.0,
        0.0,
        0.0,
        1.0,
        0.0,
        1.0,
        0.0,
        0.0,
        1.0,
        1.0,
        0.0,
        0.0,
        0.0,
        0.0,
        1.0,
        0.0,
        1.0,
        1.0,
        1.0,
        1.0,
        1.0,
        1.0,
        1.0,
        0.0,
        1.0,
        0.0,
        0.0,
        1.0,
        1.0,
        0.0,
        0.0,
        0.0,
        0.0,
        1.0
      ]
    },
    "et_classifier": {
      "n_estimators": 5,
      "n_features_in": 4,
      "n_outputs": 1,
      "n_classes": 2,
      "trees": [
        {
          "node_count": 21,
          "children_left": [
            1,
            2,
            3,
            4,
            -1,
            -1,
            -1,
            8,
            -1,
            -1,
            11,
            12,
            13,
            -1,
            -1,
            -1,
            17,
            -1,
            19,
            -1,
            -1
          ],
          "children_right": [
            10,
            7,
            6,
            5,
            -1,
            -1,
            -1,
            9,
            -1,
            -1,
            16,
            15,
            14,
            -1,
            -1,
            -1,
            18,
            -1,
            20,
            -1,
            -1
          ],
          "feature": [
            2,
            3,
            1,
            3,
            -2,
            -2,
            -2,
            1,
            -2,
            -2,
            2,
            2,
            1,
            -2,
            -2,
            -2,
            0,
            -2,
            1,
            -2,
            -2
          ],
          "threshold": [
            0.537758558979013,
            0.8548061936523313,
            0.8480033443895731,
            0.167320463536417,
            -2.0,
            -2.0,
            -2.0,
            0.6943263424475652,
            -2.0,
            -2.0,
            0.7573542491588389,
            0.7236074873137099,
            0.625635954719263,
            -2.0,
            -2.0,
            -2.0,
            0.25750501219736777,
            -2.0,
            0.49598487196350055,
            -2.0,
            -2.0
          ],
          "value": [
            0.525,
            0.475,
            0.43478260869565216,
            0.5652173913043478,
            0.4,
            0.6,
            0.47058823529411764,
            0.5294117647058824,
            0.0,
            1.0,
            0.5,
            0.5,
            0.0,
            1.0,
            0.6666666666666666,
            0.3333333333333333,
            1.0,
            0.0,
            0.0,
            1.0,
            0.6470588235294118,
            0.35294117647058826,
            0.8333333333333334,
            0.16666666666666666,
            0.6666666666666666,
            0.3333333333333333,
            1.0,
            0.0,
            0.0,
            1.0,
            1.0,
            0.0,
            0.5454545454545454,
            0.45454545454545453,
            1.0,
            0.0,
            0.4444444444444444,
            0.5555555555555556,
            1.0,
            0.0,
            0.16666666666666666,
            0.8333333333333334
          ],
          "value_shape": [
            21,
            1,
            2
          ],
          "n_node_samples": [
            40,
            23,
            20,
            17,
            1,
            16,
            3,
            3,
            2,
            1,
            17,
            6,
            3,
            2,
            1,
            3,
            11,
            2,
            9,
            3,
            6
          ],
          "weighted_n_node_samples": [
            40.0,
            23.0,
            20.0,
            17.0,
            1.0,
            16.0,
            3.0,
            3.0,
            2.0,
            1.0,
            17.0,
            6.0,
            3.0,
            2.0,
            1.0,
            3.0,
            11.0,
            2.0,
            9.0,
            3.0,
            6.0
          ],
          "impurity": [
            0.49875,
            0.4914933837429112,
            0.48,
            0.4982698961937716,
            0.0,
            0.5,
            0.0,
            0.4444444444444444,
            0.0,
            0.0,
            0.45674740484429066,
            0.2777777777777778,
            0.4444444444444444,
            0.0,
            0.0,
            0.0,
            0.49586776859504134,
            0.0,
            0.49382716049382713,
            0.0,
            0.2777777777777778
          ]
        },
        {
          "node_count": 15,
          "children_left": [
            1,
            -1,
            3,
            4,
            5,
            -1,
            -1,
            8,
            -1,
            -1,
            11,
            -1,
            13,
            -1,
            -1
          ],
          "children_right": [
            2,
            -1,
            10,
            7,
            6,
            -1,
            -1,
            9,
            -1,
            -1,
            12,
            -1,
            14,
            -1,
            -1
          ],
          "feature": [
            1,
            -2,
            1,
            1,
            0,
            -2,
            -2,
            1,
            -2,
            -2,
            2,
            -2,
            0,
            -2,
            -2
          ],
          "threshold": [
            0.07119363962162176,
            -2.0,
            0.8145368426603761,
            0.6016585800541401,
            0.59884599831695,
            -2.0,
            -2.0,
            0.6684122967044744,
            -2.0,
            -2.0,
            0.44470372455459545,
            -2.0,
            0.1553038216025042,
            -2.0,
            -2.0
          ],
          "value": [
            0.525,
            0.475,
            1.0,
            0.0,
            0.4722222222222222,
            0.5277777777777778,
            0.6153846153846154,
            0.38461538461538464,
            0.6842105263157895,
            0.3157894736842105,
            0.9166666666666666,
            0.08333333333333333,
            0.2857142857142857,
            0.7142857142857143,
            0.42857142857142855,
            0.5714285714285714,
            0.6,
            0.4,
            0.0,
            1.0,
            0.1,
            0.9,
            0.0,
            1.0,
            0.16666666666666666,
            0.8333333333333334,
            1.0,
            0.0,
            0.0,
            1.0
          ],
          "value_shape": [
            15,
            1,
            2
          ],
          "n_node_samples": [
            40,
            4,
            36,
            26,
            19,
            12,
            7,
            7,
            5,
            2,
            10,
            4,
            6,
            1,
            5
          ],
          "weighted_n_node_samples": [
            40.0,
            4.0,
            36.0,
            26.0,
            19.0,
            12.0,
            7.0,
            7.0,
            5.0,
            2.0,
            10.0,
            4.0,
            6.0,
            1.0,
            5.0
          ],
          "impurity": [
            0.49875,
            0.0,
            0.4984567901234568,
            0.47337278106508873,
            0.43213296398891965,
            0.1527777777777778,
            0.40816326530612246,
            0.4897959183673469,
            0.48,
            0.0,
            0.18000000000000005,
            0.0,
            0.2777777777777778,
            0.0,
            0.0
          ]
        },
        {
          "node_count": 15,
          "children_left": [
            1,
            2,
            3,
            -1,
            5,
            -1,
            -1,
            -1,
            9,
            10,
            -1,
            12,
            -1,
            -1,
            -1
          ],
          "children_right": [
            8,
            7,
            4,
            -1,
            6,
            -1,
            -1,
            -1,
            14,
            11,
            -1,
            13,
            -1,
            -1,
            -1
          ],
          "feature": [
            3,
            1,
            1,
            -2,
            3,
            -2,
            -2,
            -2,
            1,
            1,
            -2,
            1,
            -2,
            -2,
            -2
          ],
          "threshold": [
            0.5804640999176867,
            0.9260066386436302,
            0.3062250706975441,
            -2.0,
            0.24538283847228598,
            -2.0,
            -2.0,
            -2.0,
            0.9251641564234456,
            0.12487532218010595,
            -2.0,
            0.4459266311122237,
            -2.0,
            -2.0,
            -2.0
          ],
          "value": [
            0.525,
            0.475,
            0.35294117647058826,
            0.6470588235294118,
            0.4,
            0.6,
            0.0,
            1.0,
            0.46153846153846156,
            0.5384615384615384,
            1.0,
            0.0,
            0.36363636363636365,
            0.6363636363636364,
            0.0,
            1.0,
            0.6521739130434783,
            0.34782608695652173,
            0.6818181818181818,
            0.3181818181818182,
            1.0,
            0.0,
            0.5333333333333333,
            0.4666666666666667,
            0.75,
            0.25,
            0.2857142857142857,
            0.7142857142857143,
            0.0,
            1.0
          ],
          "value_shape": [
            15,
            1,
            2
          ],
          "n_node_samples": [
            40,
            17,
            15,
            2,
            13,
            2,
            11,
            2,
            23,
            22,
            7,
            15,
            8,
            7,
            1
          ],
          "weighted_n_node_samples": [
            40.0,
            17.0,
            15.0,
            2.0,
            13.0,
            2.0,
            11.0,
            2.0,
            23.0,
            22.0,
            7.0,
            15.0,
            8.0,
            7.0,
            1.0
          ],
          "impurity": [
            0.49875,
            0.45674740484429066,
            0.48,
            0.0,
            0.4970414201183432,
            0.0,
            0.4628099173553719,
            0.0,
            0.45368620037807184,
            0.43388429752066116,
            0.0,
            0.49777777777777776,
            0.375,
            0.40816326530612246,
            0.0
          ]
        },
        {
          "node_count": 19,
          "children_left": [
            1,
            2,
            -1,
            4,
            5,
            -1,
            -1,
            8,
            -1,
            -1,
            11,
            12,
            13,
            -1,
            -1,
            16,
            -1,
            -1,
            -1
          ],
          "children_right": [
            10,
            3,
            -1,
            7,
            6,
            -1,
            -1,
            9,
            -1,
            -1,
            18,
            15,
            14,
            -1,
            -1,
            17,
            -1,
            -1,
            -1
          ],
          "feature": [
            0,
            1,
            -2,
            2,
            1,
            -2,
            -2,
            3,
            -2,
            -2,
            1,
            0,
            1,
            -2,
            -2,
            1,
            -2,
            -2,
            -2
          ],
          "threshold": [
            0.33123288138927043,
            0.19517742846098612,
            -2.0,
            0.3691093684570832,
            0.540486707572402,
            -2.0,
            -2.0,
            0.802053302219196,
            -2.0,
            -2.0,
            0.9126771593763233,
            0.6258017621778191,
            0.1636455189808762,
            -2.0,
            -2.0,
            0.7131823081627153,
            -2.0,
            -2.0,
            -2.0
          ],
          "value": [
            0.525,
            0.475,
            0.8461538461538461,
            0.15384615384615385,
            1.0,
            0.0,
            0.75,
            0.25,
            0.5,
            0.5,
            1.0,
            0.0,
            0.0,
            1.0,
            0.8333333333333334,
            0.16666666666666666,
            1.0,
            0.0,
            0.0,
            1.0,
            0.37037037037037035,
            0.6296296296296297,
            0.43478260869565216,
            0.5652173913043478,
            0.7272727272727273,
            0.2727272727272727,
            1.0,
            0.0,
            0.5714285714285714,
            0.42857142857142855,
            0.16666666666666666,
            0.8333333333333334,
            0.2,
            0.8,
            0.0,
            1.0,
            0.0,
            1.0
          ],
          "value_shape": [
            19,
            1,
            2
          ],
          "n_node_samples": [
            40,
            13,
            5,
            8,
            2,
            1,
            1,
            6,
            5,
            1,
            27,
            23,
            11,
            4,
            7,
            12,
            10,
            2,
            4
          ],
          "weighted_n_node_samples": [
            40.0,
            13.0,
            5.0,
            8.0,
            2.0,
            1.0,
            1.0,
            6.0,
            5.0,
            1.0,
            27.0,
            23.0,
            11.0,
            4.0,
            7.0,
            12.0,
            10.0,
            2.0,
            4.0
          ],
          "impurity": [
            0.49875,
            0.2603550295857988,
            0.0,
            0.375,
            0.5,
            0.0,
            0.0,
            0.2777777777777778,
            0.0,
            0.0,
            0.46639231824417005,
            0.4914933837429112,
            0.39669421487603307,
            0.0,
            0.4897959183673469,
            0.2777777777777778,
            0.31999999999999995,
            0.0,
            0.0
          ]
        },
        {
          "node_count": 21,
          "children_left": [
            1,
            2,
            -1,
            4,
            5,
            -1,
            -1,
            -1,
            9,
            10,
            11,
            -1,
            -1,
            -1,
            15,
            16,
            -1,
            -1,
            19,
            -1,
            -1
          ],
          "children_right": [
            8,
            3,
            -1,
            7,
            6,
            -1,
            -1,
            -1,
            14,
            13,
            12,
            -1,
            -1,
            -1,
            18,
            17,
            -1,
            -1,
            20,
            -1,
            -1
          ],
          "feature": [
            1,
            0,
            -2,
            3,
            2,
            -2,
            -2,
            -2,
            3,
            1,
            0,
            -2,
            -2,
            -2,
            3,
            2,
            -2,
            -2,
            2,
            -2,
            -2
          ],
          "threshold": [
            0.5581662857252703,
            0.4561453858095011,
            -2.0,
            0.832784528757132,
            0.18774068036213987,
            -2.0,
            -2.0,
            -2.0,
            0.5488082475085255,
            0.9109153291969152,
            0.8111252705119706,
            -2.0,
            -2.0,
            -2.0,
            0.7101198674695898,
            0.9515161665705593,
            -2.0,
            -2.0,
            0.7763014352379718,
            -2.0,
            -2.0
          ],
          "value": [
            0.525,
            0.475,
            0.7272727272727273,
            0.2727272727272727,
            1.0,
            0.0,
            0.5,
            0.5,
            0.3333333333333333,
            0.6666666666666666,
            0.0,
            1.0,
            0.6,
            0.4,
            1.0,
            0.0,
            0.2777777777777778,
            0.7222222222222222,
            0.42857142857142855,
            0.5714285714285714,
            0.75,
            0.25,
            1.0,
            0.0,
            0.0,
            1.0,
            0.0,
            1.0,
            0.18181818181818182,
            0.8181818181818182,
            0.14285714285714285,
            0.8571428571428571,
            0.0,
            1.0,
            1.0,
            0.0,
            0.25,
            0.75,
            0.3333333333333333,
            0.6666666666666666,
            0.0,
            1.0
          ],
          "value_shape": [
            21,
            1,
            2
          ],
          "n_node_samples": [
            40,
            22,
            10,
            12,
            9,
            4,
            5,
            3,
            18,
            7,
            4,
            3,
            1,
            3,
            11,
            7,
            6,
            1,
            4,
            3,
            1
          ],
          "weighted_n_node_samples": [
            40.0,
            22.0,
            10.0,
            12.0,
            9.0,
            4.0,
            5.0,
            3.0,
            18.0,
            7.0,
            4.0,
            3.0,
            1.0,
            3.0,
            11.0,
            7.0,
            6.0,
            1.0,
            4.0,
            3.0,
            1.0
          ],
          "impurity": [
            0.49875,
            0.39669421487603307,
            0.0,
            0.5,
            0.4444444444444444,
            0.0,
            0.48,
            0.0,
            0.4012345679012346,
            0.4897959183673469,
            0.375,
            0.0,
            0.0,
            0.0,
            0.2975206611570248,
            0.24489795918367352,
            0.0,
            0.0,
            0.375,
            0.4444444444444444,
            0.0
          ]
        }
      ],
      "output": [
        0.5438095238095239,
        0.45619047619047615,
        0.4671428571428571,
        0.5328571428571428,
        0.07272727272727272,
        0.9272727272727274,
        0.21272727272727274,
        0.7872727272727273,
        1.0,
        0.0,
        0.607012987012987,
        0.392987012987013,
        0.38380952380952377,
        0.6161904761904762,
        0.6893939393939393,
        0.31060606060606066,
        0.5671428571428572,
        0.43285714285714283,
        0.12380952380952381,
        0.8761904761904763,
        0.8333333333333333,
        0.16666666666666669,
        0.4703463203463203,
        0.5296536796536797,
        0.7404761904761904,
        0.25952380952380955,
        1.0,
        0.0,
        0.03333333333333333,
        0.9666666666666668,
        0.82,
        0.18,
        1.0,
        0.0,
        0.9833333333333332,
        0.016666666666666666,
        0.9833333333333332,
        0.016666666666666666,
        0.6703463203463202,
        0.32965367965367964,
        0.3247619047619047,
        0.6752380952380952,
        0.5671428571428572,
        0.43285714285714283,
        0.26987012987012987,
        0.7301298701298702,
        0.0,
        1.0,
        0.27142857142857146,
        0.7285714285714285,
        0.14606060606060606,
        0.8539393939393939,
        0.3471428571428571,
        0.6528571428571428,
        0.0,
        1.0,
        0.10606060606060605,
        0.8939393939393939,
        0.8476190476190476,
        0.15238095238095237,
        0.09047619047619046,
        0.9095238095238095,
        0.8333333333333333,
        0.16666666666666669,
        0.9,
        0.1,
        0.09714285714285714,
        0.9028571428571428,
        0.31714285714285717,
        0.6828571428571428,
        0.8727272727272727,
        0.12727272727272726,
        0.9833333333333332,
        0.016666666666666666,
        0.7676190476190476,
        0.23238095238095235,
        0.9833333333333332,
        0.016666666666666666,
        0.07272727272727272,
        0.9272727272727274
      ],
      "output_shape": [
        40,
        1,
        2
      ],
      "framework_predict_sanity": [
        0.0,
        1.0,
        1.0,
        1.0,
        0.0,
        0.0,
        1.0,
        0.0,
        0.0,
        1.0,
        0.0,
        1.0,
        0.0,
        0.0,
        1.0,
        0.0,
        0.0,
        0.0,
        0.0,
        0.0,
        1.0,
        0.0,
        1.0,
        1.0,
        1.0,
        1.0,
        1.0,
        1.0,
        1.0,
        0.0,
        1.0,
        0.0,
        0.0,
        1.0,
        1.0,
        0.0,
        0.0,
        0.0,
        0.0,
        1.0
      ]
    }
  },
  "manifest": {
    "treelite": "4.7.0",
    "sklearn": "1.9.0",
    "lightgbm": "4.6.0",
    "numpy": "2.4.6",
    "python": "3.13.13",
    "os": "Linux-6.17.0-35-generic-x86_64-with-glibc2.39",
    "arch": "x86_64",
    "seed": 1234
  },
  "sha256": "2170b64c12e409970b59edd08abd9c2ac3037e3d47a016a794e0457fd1177378"
}
