{
  "input": [
    [
      0.1915194503788923,
      0.6221087710398319,
      0.4377277390071145,
      0.7853585837137692
    ],
    [
      0.7799758081188035,
      0.2725926052826416,
      0.2764642551430967,
      0.8018721775350193
    ],
    [
      0.9581393536837052,
      0.8759326347420947,
      0.35781726995786667,
      0.5009951255234587
    ],
    [
      0.6834629351721363,
      0.7127020269829002,
      0.37025075479039493,
      0.5611961860656249
    ],
    [
      0.5030831653078097,
      0.013768449590682241,
      0.772826621612374,
      0.8826411906361166
    ],
    [
      0.3648859839013723,
      0.6153961784334937,
      0.07538124164297655,
      0.3688240060019745
    ],
    [
      0.9331401019825216,
      0.6513781432265774,
      0.3972025777261542,
      0.7887301429407455
    ],
    [
      0.31683612216887125,
      0.5680986526260692,
      0.8691273895612258,
      0.43617342389567937
    ],
    [
      0.8021476420801591,
      0.14376682451456457,
      0.7042609711183354,
      0.7045813081895725
    ],
    [
      0.21879210567408858,
      0.924867628615565,
      0.44214075540417663,
      0.9093159589724725
    ],
    [
      0.0598092227798519,
      0.18428708381381365,
      0.04735527880151513,
      0.6748809435823302
    ],
    [
      0.5946247799344488,
      0.5333101629987506,
      0.04332406269480349,
      0.5614330800633979
    ],
    [
      0.329668445620915,
      0.5029668331126184,
      0.11189431757440382,
      0.6071937062184846
    ],
    [
      0.5659446430505314,
      0.00676406199000279,
      0.617441708804297,
      0.9121228864331543
    ],
    [
      0.7905241330570334,
      0.9920814661883615,
      0.9588017621528665,
      0.7919641352916398
    ],
    [
      0.2852509600245098,
      0.624916705305911,
      0.47809379567067456,
      0.19567517866589823
    ],
    [
      0.38231745203150647,
      0.05387368514623658,
      0.45164840826085906,
      0.9820047415219545
    ],
    [
      0.12394270048696299,
      0.1193808979262484,
      0.7385230561433468,
      0.5873036334639846
    ],
    [
      0.4716325343203678,
      0.1071268171938663,
      0.22921856546061792,
      0.8999651948366754
    ],
    [
      0.4167535378026932,
      0.5358516625316159,
      0.006208516587129398,
      0.30064170577030114
    ],
    [
      0.4368931721756102,
      0.6121489970657575,
      0.9181980753805731,
      0.6257366699625353
    ],
    [
      0.7059975650817732,
      0.14983371598992723,
      0.7460634091367166,
      0.8310069924335378
    ],
    [
      0.6337257689509791,
      0.4383098811224275,
      0.15257277467450536,
      0.5684096152471901
    ],
    [
      0.5282242775850605,
      0.9514287637535932,
      0.4803591785100161,
      0.5025595633825504
    ],
    [
      0.5368781929244097,
      0.8192020670641583,
      0.05711563808885989,
      0.6694217430745488
    ],
    [
      0.7671166283794725,
      0.7081153619776038,
      0.7968671837251966,
      0.5577608284274495
    ],
    [
      0.9658365319921276,
      0.14715689989299718,
      0.02964700053541558,
      0.5938934926247718
    ],
    [
      0.11406569874266248,
      0.9508098500841222,
      0.32570741442534723,
      0.1936186901537772
    ],
    [
      0.45781164889742754,
      0.9204025710930878,
      0.8790691615146757,
      0.2526157550465302
    ],
    [
      0.34800879286934616,
      0.18258873158030875,
      0.9017960513709921,
      0.7065281631717975
    ],
    [
      0.7266584615621408,
      0.9000878368097077,
      0.7791638007693242,
      0.5991547806042924
    ],
    [
      0.29112524489787484,
      0.15139526440743212,
      0.3351746591494349,
      0.6575517771578194
    ],
    [
      0.07334254363261816,
      0.05500639540622365,
      0.32319481392117644,
      0.5904818044629861
    ],
    [
      0.8538985671256417,
      0.287062425000009,
      0.17306722681479214,
      0.13402120599884282
    ],
    [
      0.9946538286442945,
      0.17949786946939184,
      0.31754682302719583,
      0.5682914046591072
    ],
    [
      0.00934857450024451,
      0.9006486211550919,
      0.9772414309225871,
      0.5568946791368349
    ],
    [
      0.08477384339419014,
      0.3330024657291001,
      0.728428676369672,
      0.14243537334181722
    ],
    [
      0.5524689394975455,
      0.2730432596836856,
      0.9744951380872597,
      0.6677869061450377
    ],
    [
      0.25565328643413965,
      0.10831149418272878,
      0.7761807231738822,
      0.782477992600202
    ],
    [
      0.7616039143074941,
      0.9144031132693238,
      0.6586227819424226,
      0.5683675815729324
    ],
    [
      0.2017556924529783,
      0.6982963755517612,
      0.9521954098154773,
      0.8899632871420051
    ],
    [
      0.9935673628631737,
      0.8187035102039255,
      0.5451221661797199,
      0.4512540549640983
    ],
    [
      0.8905571879288573,
      0.9732647911186689,
      0.5934113295689697,
      0.36607449772047085
    ],
    [
      0.3230946929662495,
      0.871423255048698,
      0.21563406298839582,
      0.7349451885621964
    ],
    [
      0.3656190873671856,
      0.8016025985027602,
      0.7827355919753762,
      0.701355379236693
    ],
    [
      0.6227765866031991,
      0.49368264574711207,
      0.8405377001184887,
      0.7120969869436473
    ],
    [
      0.44390898141585244,
      0.031034861133332647,
      0.36323976019359805,
      0.7307217914103388
    ],
    [
      0.4755665730836416,
      0.3444169701220027,
      0.6408804349960188,
      0.12620532161439946
    ],
    [
      0.17146526096424974,
      0.7370864936885216,
      0.1270293935724024,
      0.3696498749466268
    ],
    [
      0.6043340048360264,
      0.10310443885564724,
      0.8023741823372101,
      0.9455532358421244
    ]
  ],
  "n_estimators": 5,
  "n_features_in": 4,
  "max_samples": 32,
  "ratio_c": 6.084905738773358,
  "trees": [
    {
      "node_count": 37,
      "children_left": [
        1,
        2,
        3,
        4,
        -1,
        -1,
        -1,
        8,
        -1,
        -1,
        11,
        12,
        13,
        14,
        -1,
        -1,
        17,
        -1,
        -1,
        20,
        -1,
        22,
        -1,
        -1,
        25,
        26,
        27,
        -1,
        -1,
        30,
        -1,
        -1,
        33,
        -1,
        35,
        -1,
        -1
      ],
      "children_right": [
        10,
        7,
        6,
        5,
        -1,
        -1,
        -1,
        9,
        -1,
        -1,
        24,
        19,
        16,
        15,
        -1,
        -1,
        18,
        -1,
        -1,
        21,
        -1,
        23,
        -1,
        -1,
        32,
        29,
        28,
        -1,
        -1,
        31,
        -1,
        -1,
        34,
        -1,
        36,
        -1,
        -1
      ],
      "feature": [
        0,
        1,
        0,
        2,
        -2,
        -2,
        -2,
        2,
        -2,
        -2,
        2,
        1,
        3,
        0,
        -2,
        -2,
        1,
        -2,
        -2,
        2,
        -2,
        1,
        -2,
        -2,
        1,
        1,
        2,
        -2,
        -2,
        1,
        -2,
        -2,
        3,
        -2,
        3,
        -2,
        -2
      ],
      "threshold": [
        0.13990770958328638,
        0.5560654669030951,
        0.12207988678138423,
        0.3175711521678249,
        -2.0,
        -2.0,
        -2.0,
        0.7308067279649226,
        -2.0,
        -2.0,
        0.576356909916265,
        0.8330180960204889,
        0.6737490937796293,
        0.785551942996281,
        -2.0,
        -2.0,
        0.19837481086893965,
        -2.0,
        -2.0,
        0.3201966251499141,
        -2.0,
        0.8934751212880012,
        -2.0,
        -2.0,
        0.24500693760890394,
        0.12632411680670874,
        0.6175271850386328,
        -2.0,
        -2.0,
        0.14879539715078383,
        -2.0,
        -2.0,
        0.15149530324435817,
        -2.0,
        0.39252513377603465,
        -2.0,
        -2.0
      ],
      "value": [
        0.0,
        0.0,
        0.0,
        0.0,
        4.0,
        4.0,
        3.0,
        0.0,
        3.0,
        3.0,
        0.0,
        0.0,
        0.0,
        0.0,
        7.3270200520428475,
        5.0,
        0.0,
        6.207392357589623,
        6.0,
        0.0,
        4.0,
        0.0,
        5.0,
        6.0,
        0.0,
        0.0,
        0.0,
        5.0,
        6.207392357589623,
        0.0,
        5.0,
        5.0,
        0.0,
        4.0,
        0.0,
        5.0,
        6.8516559071392855
      ],
      "value_shape": [
        37,
        1,
        1
      ],
      "n_node_samples": [
        32,
        5,
        3,
        2,
        1,
        1,
        1,
        2,
        1,
        1,
        27,
        15,
        11,
        6,
        5,
        1,
        5,
        3,
        2,
        4,
        1,
        3,
        1,
        2,
        12,
        6,
        4,
        1,
        3,
        2,
        1,
        1,
        6,
        1,
        5,
        1,
        4
      ],
      "weighted_n_node_samples": [
        32.0,
        5.0,
        3.0,
        2.0,
        1.0,
        1.0,
        1.0,
        2.0,
        1.0,
        1.0,
        27.0,
        15.0,
        11.0,
        6.0,
        5.0,
        1.0,
        5.0,
        3.0,
        2.0,
        4.0,
        1.0,
        3.0,
        1.0,
        2.0,
        12.0,
        6.0,
        4.0,
        1.0,
        3.0,
        2.0,
        1.0,
        1.0,
        6.0,
        1.0,
        5.0,
        1.0,
        4.0
      ],
      "impurity": [
        0.061128489294305755,
        0.09351361203189673,
        0.10414898017074961,
        0.04935736989758377,
        0.0,
        0.0,
        -2.930056371142076e-17,
        0.001770256597494968,
        0.0,
        1.1102230246251565e-16,
        0.05510300376411387,
        0.06253754979016035,
        0.06594797015237011,
        0.05141910861866872,
        0.055188265992283936,
        -4.440892098500626e-16,
        0.06530269981292142,
        0.09070154979132594,
        0.001803904964107178,
        0.040266543150649425,
        0.0,
        0.050436712934537054,
        0.0,
        0.06428979033567139,
        0.03738063379971074,
        0.031103999667737636,
        0.01976777010378039,
        0.0,
        0.021618478534007057,
        0.03803293712038325,
        0.0,
        2.7755575615628914e-16,
        0.03953747600421764,
        0.0,
        0.04742777233738876,
        0.0,
        0.03900337314926361
      ]
    },
    {
      "node_count": 45,
      "children_left": [
        1,
        2,
        3,
        4,
        5,
        -1,
        -1,
        8,
        -1,
        -1,
        11,
        -1,
        -1,
        14,
        15,
        16,
        -1,
        -1,
        -1,
        20,
        21,
        -1,
        -1,
        24,
        -1,
        -1,
        27,
        28,
        29,
        -1,
        31,
        -1,
        -1,
        34,
        -1,
        -1,
        37,
        38,
        -1,
        -1,
        41,
        42,
        -1,
        -1,
        -1
      ],
      "children_right": [
        26,
        13,
        10,
        7,
        6,
        -1,
        -1,
        9,
        -1,
        -1,
        12,
        -1,
        -1,
        19,
        18,
        17,
        -1,
        -1,
        -1,
        23,
        22,
        -1,
        -1,
        25,
        -1,
        -1,
        36,
        33,
        30,
        -1,
        32,
        -1,
        -1,
        35,
        -1,
        -1,
        40,
        39,
        -1,
        -1,
        44,
        43,
        -1,
        -1,
        -1
      ],
      "feature": [
        3,
        0,
        2,
        0,
        3,
        -2,
        -2,
        3,
        -2,
        -2,
        2,
        -2,
        -2,
        3,
        3,
        0,
        -2,
        -2,
        -2,
        3,
        0,
        -2,
        -2,
        2,
        -2,
        -2,
        1,
        0,
        2,
        -2,
        1,
        -2,
        -2,
        0,
        -2,
        -2,
        3,
        3,
        -2,
        -2,
        0,
        3,
        -2,
        -2,
        -2
      ],
      "threshold": [
        0.683463172803216,
        0.446295557663249,
        0.32822877534765993,
        0.3102787299221795,
        0.39326704620437597,
        -2.0,
        -2.0,
        0.4137778310298458,
        -2.0,
        -2.0,
        0.6246156566443125,
        -2.0,
        -2.0,
        0.2815699532439545,
        0.1816040200344519,
        0.5588543223255317,
        -2.0,
        -2.0,
        -2.0,
        0.4836866963273815,
        0.9280029510394984,
        -2.0,
        -2.0,
        0.747921512832877,
        -2.0,
        -2.0,
        0.5278696424112641,
        0.7517496640455755,
        0.6822112896781304,
        -2.0,
        0.220788653592617,
        -2.0,
        -2.0,
        0.7997179870891196,
        -2.0,
        -2.0,
        0.7377095438380904,
        0.7036415958258283,
        -2.0,
        -2.0,
        0.8307640162705945,
        0.8837080186705546,
        -2.0,
        -2.0,
        -2.0
      ],
      "value": [
        0.0,
        0.0,
        0.0,
        0.0,
        0.0,
        6.0,
        6.0,
        0.0,
        5.0,
        5.0,
        0.0,
        4.0,
        4.0,
        0.0,
        0.0,
        0.0,
        5.0,
        5.0,
        4.0,
        0.0,
        0.0,
        5.0,
        5.0,
        0.0,
        7.3270200520428475,
        6.0,
        0.0,
        0.0,
        0.0,
        4.0,
        0.0,
        6.207392357589623,
        5.0,
        0.0,
        4.0,
        4.0,
        0.0,
        0.0,
        4.0,
        4.0,
        0.0,
        0.0,
        5.0,
        5.0,
        4.0
      ],
      "value_shape": [
        45,
        1,
        1
      ],
      "n_node_samples": [
        32,
        20,
        8,
        6,
        4,
        2,
        2,
        2,
        1,
        1,
        2,
        1,
        1,
        12,
        3,
        2,
        1,
        1,
        1,
        9,
        2,
        1,
        1,
        7,
        5,
        2,
        12,
        7,
        5,
        1,
        4,
        3,
        1,
        2,
        1,
        1,
        5,
        2,
        1,
        1,
        3,
        2,
        1,
        1,
        1
      ],
      "weighted_n_node_samples": [
        32.0,
        20.0,
        8.0,
        6.0,
        4.0,
        2.0,
        2.0,
        2.0,
        1.0,
        1.0,
        2.0,
        1.0,
        1.0,
        12.0,
        3.0,
        2.0,
        1.0,
        1.0,
        1.0,
        9.0,
        2.0,
        1.0,
        1.0,
        7.0,
        5.0,
        2.0,
        12.0,
        7.0,
        5.0,
        1.0,
        4.0,
        3.0,
        1.0,
        2.0,
        1.0,
        1.0,
        5.0,
        2.0,
        1.0,
        1.0,
        3.0,
        2.0,
        1.0,
        1.0,
        1.0
      ],
      "impurity": [
        0.06841478950774149,
        0.08138965378582438,
        0.07776695694311242,
        0.04751762125691705,
        0.051128875145021235,
        0.05268441048654088,
        0.049357369897583825,
        0.00991799436241858,
        0.0,
        5.551115123125783e-17,
        0.07491928166551995,
        0.0,
        2.621058751983707e-17,
        0.07702118765889326,
        0.029358417180666146,
        0.04361127525604587,
        0.0,
        1.3877787807814457e-17,
        2.7755575615628914e-17,
        0.08995495262628064,
        0.004687579805981534,
        0.0,
        0.0,
        0.07344625636163243,
        0.07205882103778538,
        0.011853683569827078,
        0.03639576057152688,
        0.02699049598237102,
        0.01306632917810907,
        0.0,
        0.003895518969213696,
        0.005150845669749049,
        -1.1102230246251565e-16,
        0.02822913811799521,
        0.0,
        2.220446049250313e-16,
        0.04611898340439713,
        0.001610262950868857,
        0.0,
        -5.551115123125783e-17,
        0.06931915659629179,
        0.06392854092787131,
        0.0,
        0.0,
        -1.3877787807814457e-17
      ]
    },
    {
      "node_count": 33,
      "children_left": [
        1,
        2,
        3,
        -1,
        -1,
        6,
        7,
        8,
        -1,
        -1,
        -1,
        12,
        13,
        -1,
        -1,
        16,
        -1,
        -1,
        19,
        20,
        21,
        -1,
        23,
        -1,
        -1,
        26,
        -1,
        28,
        -1,
        -1,
        31,
        -1,
        -1
      ],
      "children_right": [
        18,
        5,
        4,
        -1,
        -1,
        11,
        10,
        9,
        -1,
        -1,
        -1,
        15,
        14,
        -1,
        -1,
        17,
        -1,
        -1,
        30,
        25,
        22,
        -1,
        24,
        -1,
        -1,
        27,
        -1,
        29,
        -1,
        -1,
        32,
        -1,
        -1
      ],
      "feature": [
        1,
        1,
        3,
        -2,
        -2,
        3,
        0,
        2,
        -2,
        -2,
        -2,
        1,
        3,
        -2,
        -2,
        3,
        -2,
        -2,
        2,
        1,
        1,
        -2,
        0,
        -2,
        -2,
        2,
        -2,
        2,
        -2,
        -2,
        2,
        -2,
        -2
      ],
      "threshold": [
        0.6841773170357188,
        0.026884711216884426,
        0.9039958462040154,
        -2.0,
        -2.0,
        0.2772099702537492,
        0.30744716004255734,
        0.6049019123157273,
        -2.0,
        -2.0,
        -2.0,
        0.5871332213057969,
        0.914209014504636,
        -2.0,
        -2.0,
        0.6782075808909167,
        -2.0,
        -2.0,
        0.8733053554974406,
        0.8816277902496374,
        0.733870318379328,
        -2.0,
        0.7058000590219589,
        -2.0,
        -2.0,
        0.35017679119528555,
        -2.0,
        0.7083895696797471,
        -2.0,
        -2.0,
        0.9514195744742474,
        -2.0,
        -2.0
      ],
      "value": [
        0.0,
        0.0,
        0.0,
        3.0,
        3.0,
        0.0,
        0.0,
        0.0,
        5.0,
        5.0,
        4.0,
        0.0,
        0.0,
        9.27809078322522,
        5.0,
        0.0,
        6.0,
        5.0,
        0.0,
        0.0,
        0.0,
        4.0,
        0.0,
        5.0,
        5.0,
        0.0,
        4.0,
        0.0,
        6.207392357589623,
        5.0,
        0.0,
        3.0,
        3.0
      ],
      "value_shape": [
        33,
        1,
        1
      ],
      "n_node_samples": [
        32,
        22,
        2,
        1,
        1,
        20,
        3,
        2,
        1,
        1,
        1,
        17,
        14,
        13,
        1,
        3,
        2,
        1,
        10,
        8,
        3,
        1,
        2,
        1,
        1,
        5,
        1,
        4,
        3,
        1,
        2,
        1,
        1
      ],
      "weighted_n_node_samples": [
        32.0,
        22.0,
        2.0,
        1.0,
        1.0,
        20.0,
        3.0,
        2.0,
        1.0,
        1.0,
        1.0,
        17.0,
        14.0,
        13.0,
        1.0,
        3.0,
        2.0,
        1.0,
        10.0,
        8.0,
        3.0,
        1.0,
        2.0,
        1.0,
        1.0,
        5.0,
        1.0,
        4.0,
        3.0,
        1.0,
        2.0,
        1.0,
        1.0
      ],
      "impurity": [
        0.06187659600671119,
        0.0597524414521613,
        0.001131440407080242,
        0.0,
        -1.1102230246251565e-16,
        0.06192122828373481,
        0.02607149419088836,
        0.029310138567193417,
        0.0,
        -1.3877787807814457e-17,
        5.551115123125783e-17,
        0.06626842781182257,
        0.0581583452187186,
        0.06143633126269121,
        3.3306690738754696e-16,
        0.005016319903167407,
        0.0021295169342150783,
        2.0816681711721685e-17,
        0.06588803251786507,
        0.07107373780376708,
        0.008164902324429013,
        0.0,
        0.00615417036293836,
        0.0,
        -8.326672684688674e-17,
        0.1085090709012061,
        0.0,
        0.12329380797958289,
        0.11633797096533893,
        1.1102230246251565e-16,
        0.0007132807445232731,
        0.0,
        0.0
      ]
    },
    {
      "node_count": 37,
      "children_left": [
        1,
        2,
        -1,
        4,
        5,
        -1,
        -1,
        8,
        9,
        -1,
        -1,
        12,
        -1,
        -1,
        15,
        16,
        17,
        -1,
        -1,
        20,
        21,
        -1,
        -1,
        24,
        -1,
        -1,
        27,
        28,
        29,
        -1,
        -1,
        -1,
        33,
        34,
        -1,
        -1,
        -1
      ],
      "children_right": [
        14,
        3,
        -1,
        7,
        6,
        -1,
        -1,
        11,
        10,
        -1,
        -1,
        13,
        -1,
        -1,
        26,
        19,
        18,
        -1,
        -1,
        23,
        22,
        -1,
        -1,
        25,
        -1,
        -1,
        32,
        31,
        30,
        -1,
        -1,
        -1,
        36,
        35,
        -1,
        -1,
        -1
      ],
      "feature": [
        1,
        1,
        -2,
        1,
        2,
        -2,
        -2,
        3,
        3,
        -2,
        -2,
        2,
        -2,
        -2,
        2,
        2,
        3,
        -2,
        -2,
        2,
        3,
        -2,
        -2,
        0,
        -2,
        -2,
        3,
        1,
        0,
        -2,
        -2,
        -2,
        1,
        1,
        -2,
        -2,
        -2
      ],
      "threshold": [
        0.6146130966171138,
        0.014256419076939966,
        -2.0,
        0.09602692289121006,
        0.3778529100039288,
        -2.0,
        -2.0,
        0.7432409879662373,
        0.5491402753060983,
        -2.0,
        -2.0,
        0.6058008109668822,
        -2.0,
        -2.0,
        0.5993214290585736,
        0.09346841962603733,
        0.41404506652523615,
        -2.0,
        -2.0,
        0.3566576571074159,
        0.2900037939390595,
        -2.0,
        -2.0,
        0.2481191256889968,
        -2.0,
        -2.0,
        0.6367214228482662,
        0.905590472880095,
        0.453627714018149,
        -2.0,
        -2.0,
        -2.0,
        0.8649469546997403,
        0.7749186343134803,
        -2.0,
        -2.0,
        -2.0
      ],
      "value": [
        0.0,
        0.0,
        2.0,
        0.0,
        0.0,
        4.0,
        4.0,
        0.0,
        0.0,
        6.0,
        8.023664553973461,
        0.0,
        5.0,
        6.207392357589623,
        0.0,
        0.0,
        0.0,
        4.0,
        4.0,
        0.0,
        0.0,
        5.0,
        5.0,
        0.0,
        5.0,
        6.8516559071392855,
        0.0,
        0.0,
        0.0,
        5.0,
        6.0,
        4.0,
        0.0,
        0.0,
        5.0,
        5.0,
        4.0
      ],
      "value_shape": [
        37,
        1,
        1
      ],
      "n_node_samples": [
        32,
        16,
        1,
        15,
        2,
        1,
        1,
        13,
        9,
        2,
        7,
        4,
        1,
        3,
        16,
        9,
        2,
        1,
        1,
        7,
        2,
        1,
        1,
        5,
        1,
        4,
        7,
        4,
        3,
        1,
        2,
        1,
        3,
        2,
        1,
        1,
        1
      ],
      "weighted_n_node_samples": [
        32.0,
        16.0,
        1.0,
        15.0,
        2.0,
        1.0,
        1.0,
        13.0,
        9.0,
        2.0,
        7.0,
        4.0,
        1.0,
        3.0,
        16.0,
        9.0,
        2.0,
        1.0,
        1.0,
        7.0,
        2.0,
        1.0,
        1.0,
        5.0,
        1.0,
        4.0,
        7.0,
        4.0,
        3.0,
        1.0,
        2.0,
        1.0,
        3.0,
        2.0,
        1.0,
        1.0,
        1.0
      ],
      "impurity": [
        0.06565841276754719,
        0.060879987358515075,
        0.0,
        0.06150483254091968,
        0.052844608108879185,
        0.0,
        0.0,
        0.055369604929173255,
        0.06947624794633633,
        0.1101739019012305,
        0.05586333257975734,
        0.015832462689139848,
        0.0,
        0.005150845669749049,
        0.06527965802432656,
        0.05760105163147816,
        0.10908074884911956,
        0.0,
        2.220446049250313e-16,
        0.04286864542881397,
        0.05268441048654088,
        0.0,
        -2.7755575615628914e-17,
        0.03832166637911394,
        0.0,
        0.02509976729024349,
        0.07515192058438686,
        0.011711502441902222,
        0.008591191548461552,
        0.0,
        0.011853683569826856,
        3.3306690738754696e-16,
        0.048082814236775476,
        0.07150692004364553,
        0.0,
        0.0,
        -2.7755575615628914e-17
      ]
    },
    {
      "node_count": 29,
      "children_left": [
        1,
        2,
        3,
        4,
        5,
        -1,
        -1,
        8,
        -1,
        -1,
        -1,
        12,
        13,
        14,
        -1,
        -1,
        -1,
        18,
        19,
        -1,
        -1,
        22,
        -1,
        -1,
        25,
        26,
        -1,
        -1,
        -1
      ],
      "children_right": [
        24,
        11,
        10,
        7,
        6,
        -1,
        -1,
        9,
        -1,
        -1,
        -1,
        17,
        16,
        15,
        -1,
        -1,
        -1,
        21,
        20,
        -1,
        -1,
        23,
        -1,
        -1,
        28,
        27,
        -1,
        -1,
        -1
      ],
      "feature": [
        2,
        2,
        0,
        3,
        1,
        -2,
        -2,
        1,
        -2,
        -2,
        -2,
        1,
        1,
        3,
        -2,
        -2,
        -2,
        1,
        2,
        -2,
        -2,
        2,
        -2,
        -2,
        0,
        1,
        -2,
        -2,
        -2
      ],
      "threshold": [
        0.9392668757040596,
        0.33573501839746894,
        0.8279008859873652,
        0.30493036180369076,
        0.8253725660571627,
        -2.0,
        -2.0,
        0.6108325559714886,
        -2.0,
        -2.0,
        -2.0,
        0.1089964389857262,
        0.07332898431124826,
        0.8285753399963802,
        -2.0,
        -2.0,
        -2.0,
        0.33154372304658003,
        0.874828485854957,
        -2.0,
        -2.0,
        0.4754823624133042,
        -2.0,
        -2.0,
        0.6459819563179038,
        0.3980070292759796,
        -2.0,
        -2.0,
        -2.0
      ],
      "value": [
        0.0,
        0.0,
        0.0,
        0.0,
        0.0,
        5.0,
        5.0,
        0.0,
        8.023664553973461,
        6.0,
        3.0,
        0.0,
        0.0,
        0.0,
        5.0,
        6.207392357589623,
        4.0,
        0.0,
        0.0,
        5.0,
        5.0,
        0.0,
        6.207392357589623,
        8.023664553973461,
        0.0,
        0.0,
        3.0,
        3.0,
        2.0
      ],
      "value_shape": [
        29,
        1,
        1
      ],
      "n_node_samples": [
        32,
        29,
        12,
        11,
        2,
        1,
        1,
        9,
        7,
        2,
        1,
        17,
        5,
        4,
        1,
        3,
        1,
        12,
        2,
        1,
        1,
        10,
        3,
        7,
        3,
        2,
        1,
        1,
        1
      ],
      "weighted_n_node_samples": [
        32.0,
        29.0,
        12.0,
        11.0,
        2.0,
        1.0,
        1.0,
        9.0,
        7.0,
        2.0,
        1.0,
        17.0,
        5.0,
        4.0,
        1.0,
        3.0,
        1.0,
        12.0,
        2.0,
        1.0,
        1.0,
        10.0,
        3.0,
        7.0,
        3.0,
        2.0,
        1.0,
        1.0,
        1.0
      ],
      "impurity": [
        0.08711619963357553,
        0.0819604221039974,
        0.06550625012340117,
        0.07029330014479634,
        0.002204821219810582,
        0.0,
        1.1102230246251565e-16,
        0.06847359257306934,
        0.054940003575560614,
        0.10908074884911956,
        -4.440892098500626e-16,
        0.09115080223085548,
        0.06709364424867417,
        0.08295227812420997,
        0.0,
        0.0139039293823488,
        -1.6653345369377348e-16,
        0.10086380791800009,
        0.03803293712038325,
        0.0,
        2.7755575615628914e-16,
        0.10024739188998097,
        0.09277770721396175,
        0.10274477207452412,
        0.12803331855952121,
        0.18708151137675638,
        0.0,
        -8.239936510889834e-18,
        2.7755575615628914e-17
      ]
    }
  ],
  "output": [
    0.5380236578814481,
    0.47906684874802613,
    0.5004382974811954,
    0.4855350404084825,
    0.5838141778701418,
    0.5244733422315747,
    0.5276850829327187,
    0.45927757852058176,
    0.4901064727183672,
    0.5234257057686905,
    0.44717654518531497,
    0.4021892493026983,
    0.42408678240880837,
    0.631046856785151,
    0.6218520331671716,
    0.49121778243120673,
    0.5604514604323412,
    0.5129547747970216,
    0.47680863587775796,
    0.4757673367219573,
    0.47259262254525725,
    0.4857586807668416,
    0.4021892493026983,
    0.45660337376253424,
    0.5088543117009313,
    0.4948911881541006,
    0.47551090161062876,
    0.5921485309653619,
    0.578498440122152,
    0.46606854502218076,
    0.48374378870607077,
    0.43385944486879746,
    0.4901064727183672,
    0.5921485309653619,
    0.47551090161062876,
    0.6635936975413433,
    0.5402804269141142,
    0.46986117823767015,
    0.48346892411258996,
    0.47788979292773065,
    0.5941531719807226,
    0.5062954684497095,
    0.492558382923698,
    0.5788104146981158,
    0.517962549159175,
    0.4287045980756923,
    0.5225833090035206,
    0.5402804269141142,
    0.5126596062313328,
    0.5329633686951071
  ],
  "output_shape": [
    50,
    1,
    1
  ],
  "neg_score_samples_cross_check": [
    0.5380236641504763,
    0.4790668553752886,
    0.5004383039935342,
    0.48553504700281824,
    0.5838141837763192,
    0.5244733485941985,
    0.527685089273747,
    0.45927758523829204,
    0.49010647928845336,
    0.5234257121382787,
    0.44717655195047823,
    0.40218925618889323,
    0.4240867892472918,
    0.6310468622462974,
    0.6218520387203234,
    0.49121778899527646,
    0.5604514665324329,
    0.5129547812340385,
    0.4768086425161307,
    0.4757673433653854,
    0.47259262920383344,
    0.48575868736000977,
    0.40218925618889323,
    0.45660338049125254,
    0.5088543181632632,
    0.49489119469794757,
    0.4755109082552953,
    0.5921485367980724,
    0.5784984460740213,
    0.466068551710625,
    0.4837437953096881,
    0.4338594516790605,
    0.49010647928845336,
    0.5921485367980724,
    0.4755109082552953,
    0.6635937026568269,
    0.5402804331669266,
    0.4698611849089586,
    0.4834689307176205,
    0.47788979956080924,
    0.5941531777954322,
    0.5062954749275247,
    0.49255838948044717,
    0.5788104206473287,
    0.51796255556444,
    0.42870460490136253,
    0.5225833153786801,
    0.5402804331669266,
    0.5126596126701926,
    0.5329633749998474
  ],
  "cross_check_max_delta": 6.886194947597346e-09,
  "manifest": {
    "treelite": "4.7.0",
    "sklearn": "1.9.0",
    "lightgbm": "4.6.0",
    "numpy": "2.4.6",
    "python": "3.13.13",
    "os": "Linux-6.17.0-35-generic-x86_64-with-glibc2.39",
    "arch": "x86_64",
    "seed": 1234
  },
  "sha256": "2da4c01c3da10c5fb2c784d52365d76066f436bf0bddfbe29cdb55c1fc0b00ae"
}
