{"input": [[0.1915194503788923, 0.6221087710398319, 0.4377277390071145, 0.7853585837137692], [0.7799758081188035, 0.2725926052826416, 0.2764642551430967, 0.8018721775350193], [0.9581393536837052, 0.8759326347420947, 0.35781726995786667, 0.5009951255234587], [0.6834629351721363, 0.7127020269829002, 0.37025075479039493, 0.5611961860656249], [0.5030831653078097, 0.013768449590682241, 0.772826621612374, 0.8826411906361166], [0.3648859839013723, 0.6153961784334937, 0.07538124164297655, 0.3688240060019745], [0.9331401019825216, 0.6513781432265774, 0.3972025777261542, 0.7887301429407455], [0.31683612216887125, 0.5680986526260692, 0.8691273895612258, 0.43617342389567937], [0.8021476420801591, 0.14376682451456457, 0.7042609711183354, 0.7045813081895725], [0.21879210567408858, 0.924867628615565, 0.44214075540417663, 0.9093159589724725], [0.0598092227798519, 0.18428708381381365, 0.04735527880151513, 0.6748809435823302], [0.5946247799344488, 0.5333101629987506, 0.04332406269480349, 0.5614330800633979], [0.329668445620915, 0.5029668331126184, 0.11189431757440382, 0.6071937062184846], [0.5659446430505314, 0.00676406199000279, 0.617441708804297, 0.9121228864331543], [0.7905241330570334, 0.9920814661883615, 0.9588017621528665, 0.7919641352916398], [0.2852509600245098, 0.624916705305911, 0.47809379567067456, 0.19567517866589823], [0.38231745203150647, 0.05387368514623658, 0.45164840826085906, 0.9820047415219545], [0.12394270048696299, 0.1193808979262484, 0.7385230561433468, 0.5873036334639846], [0.4716325343203678, 0.1071268171938663, 0.22921856546061792, 0.8999651948366754], [0.4167535378026932, 0.5358516625316159, 0.006208516587129398, 0.30064170577030114], [0.4368931721756102, 0.6121489970657575, 0.9181980753805731, 0.6257366699625353], [0.7059975650817732, 0.14983371598992723, 0.7460634091367166, 0.8310069924335378], [0.6337257689509791, 0.4383098811224275, 0.15257277467450536, 0.5684096152471901], [0.5282242775850605, 0.9514287637535932, 0.4803591785100161, 0.5025595633825504], [0.5368781929244097, 0.8192020670641583, 0.05711563808885989, 0.6694217430745488], [0.7671166283794725, 0.7081153619776038, 0.7968671837251966, 0.5577608284274495], [0.9658365319921276, 0.14715689989299718, 0.02964700053541558, 0.5938934926247718], [0.11406569874266248, 0.9508098500841222, 0.32570741442534723, 0.1936186901537772], [0.45781164889742754, 0.9204025710930878, 0.8790691615146757, 0.2526157550465302], [0.34800879286934616, 0.18258873158030875, 0.9017960513709921, 0.7065281631717975], [0.7266584615621408, 0.9000878368097077, 0.7791638007693242, 0.5991547806042924], [0.29112524489787484, 0.15139526440743212, 0.3351746591494349, 0.6575517771578194], [0.07334254363261816, 0.05500639540622365, 0.32319481392117644, 0.5904818044629861], [0.8538985671256417, 0.287062425000009, 0.17306722681479214, 0.13402120599884282], [0.9946538286442945, 0.17949786946939184, 0.31754682302719583, 0.5682914046591072], [0.00934857450024451, 0.9006486211550919, 0.9772414309225871, 0.5568946791368349], [0.08477384339419014, 0.3330024657291001, 0.728428676369672, 0.14243537334181722], [0.5524689394975455, 0.2730432596836856, 0.9744951380872597, 0.6677869061450377], [0.25565328643413965, 0.10831149418272878, 0.7761807231738822, 0.782477992600202], [0.7616039143074941, 0.9144031132693238, 0.6586227819424226, 0.5683675815729324]], "families": {"gb_regressor": {"n_estimators": 5, "n_features_in": 4, "learning_rate": 0.1, "leaf_shrink_applied_capture_side": true, "trees": [{"node_count": 15, "children_left": [1, 2, 3, -1, -1, 6, -1, -1, 9, 10, -1, -1, 13, -1, -1], "children_right": [8, 5, 4, -1, -1, 7, -1, -1, 12, 11, -1, -1, 14, -1, -1], "feature": [2, 2, 1, -2, -2, 3, -2, -2, 0, 0, -2, -2, 0, -2, -2], "threshold": [0.7880154848098755, 0.34649595618247986, 0.18189247697591782, -2.0, -2.0, 0.9470638334751129, -2.0, -2.0, 0.5051403045654297, 0.3924509733915329, -2.0, -2.0, 0.7788203656673431, -2.0, -2.0], "value": [-3.8857805861880475e-18, 0.006118158691935861, -0.004981495350113274, -0.025727095985054738, 0.005391304967357458, 0.015911971081979216, 0.01819263763802396, -0.020578693814736693, -0.024472634767743452, -0.011867321357063886, -0.01829657255036433, -0.00222344456711322, -0.045481490452209394, -0.050433637552006264, -0.03557719625261568], "value_shape": [15, 1, 1], "n_node_samples": [40, 32, 15, 5, 10, 17, 16, 1, 8, 5, 3, 2, 3, 2, 1], "weighted_n_node_samples": [40.0, 32.0, 15.0, 5.0, 10.0, 17.0, 16.0, 1.0, 8.0, 5.0, 3.0, 2.0, 3.0, 2.0, 1.0], "impurity": [0.07506275543620324, 0.06644865560923169, 0.06309093486813318, 0.06253570373692112, 0.03109005450590293, 0.048948681339430956, 0.04316552602538169, -6.245004513516506e-17, 0.03465542318466873, 0.00961470973601075, 0.0020789004866410693, 0.005417697020107076, 0.005770422851784168, 0.0012985060082683075, 0.0]}, {"node_count": 15, "children_left": [1, 2, 3, -1, -1, 6, -1, -1, 9, 10, -1, -1, 13, -1, -1], "children_right": [8, 5, 4, -1, -1, 7, -1, -1, 12, 11, -1, -1, 14, -1, -1], "feature": [2, 2, 3, -2, -2, 3, -2, -2, 0, 0, -2, -2, 0, -2, -2], "threshold": [0.7880154848098755, 0.43993425369262695, 0.5613146424293518, -2.0, -2.0, 0.9470638334751129, -2.0, -2.0, 0.5051403045654297, 0.3924509733915329, -2.0, -2.0, 0.7788203656673431, -2.0, -2.0], "value": [-3.053113317719181e-18, 0.0055063428227422745, -0.0023255787857127254, 0.022393987054402802, -0.013734609173458354, 0.016952997481253427, 0.019909149307463136, -0.018520824433263028, -0.02202537129096911, -0.010680589221357499, -0.016466915295327896, -0.002001100110401899, -0.04093334140698846, -0.04539027379680564, -0.032019476627354104], "value_shape": [15, 1, 1], "n_node_samples": [40, 32, 19, 6, 13, 13, 12, 1, 8, 5, 3, 2, 3, 2, 1], "weighted_n_node_samples": [40.0, 32.0, 19.0, 6.0, 13.0, 13.0, 12.0, 1.0, 8.0, 5.0, 3.0, 2.0, 3.0, 2.0, 1.0], "impurity": [0.06713684069474012, 0.06162663670686675, 0.06731606843875974, 0.007369929521676116, 0.053764291946695436, 0.03124379292283469, 0.0224869586275871, -7.632783294297951e-17, 0.028538034083102813, 0.008436654515173937, 0.0020789004866410624, 0.005417697020107081, 0.004838519937659075, 0.001298506008268141, -2.7755575615628914e-17]}, {"node_count": 15, "children_left": [1, 2, 3, -1, -1, 6, -1, -1, 9, 10, -1, -1, 13, -1, -1], "children_right": [8, 5, 4, -1, -1, 7, -1, -1, 12, 11, -1, -1, 14, -1, -1], "feature": [2, 0, 0, -2, -2, 0, -2, -2, 0, 0, -2, -2, 3, -2, -2], "threshold": [0.7880154848098755, 0.9619879424571991, 0.39953549206256866, -2.0, -2.0, 0.9802451729774475, -2.0, -2.0, 0.5051403045654297, 0.3924509733915329, -2.0, -2.0, 0.7298755049705505, -2.0, -2.0], "value": [-1.1102230246251568e-18, 0.004955708540468048, 0.007198154066319512, -0.0022816068464793725, 0.014447382999636306, -0.028680974347303923, -0.01687045601624414, -0.04049149267836371, -0.0198228341618722, -0.009612530299221753, -0.014820223765795114, -0.0018009900993617102, -0.036840007266289616, -0.04085124641712507, -0.0288175289646187], "value_shape": [15, 1, 1], "n_node_samples": [40, 32, 30, 13, 17, 2, 1, 1, 8, 5, 3, 2, 3, 2, 1], "weighted_n_node_samples": [40.0, 32.0, 30.0, 13.0, 17.0, 2.0, 1.0, 1.0, 8.0, 5.0, 3.0, 2.0, 3.0, 2.0, 1.0], "impurity": [0.05928601388429237, 0.05593225655862291, 0.050685452275951115, 0.06167026525053116, 0.030158073455980396, 0.013948834324829643, 0.0, 0.0, 0.02358294891083426, 0.0074824297862960965, 0.0020789004866410624, 0.005417697020107083, 0.004083678577217809, 0.0012985060082681688, 4.163336342344337e-17]}, {"node_count": 15, "children_left": [1, 2, 3, -1, -1, 6, -1, -1, 9, 10, -1, -1, 13, -1, -1], "children_right": [8, 5, 4, -1, -1, 7, -1, -1, 12, 11, -1, -1, 14, -1, -1], "feature": [2, 2, 3, -2, -2, 3, -2, -2, 0, 0, -2, -2, 0, -2, -2], "threshold": [0.7880154848098755, 0.43993425369262695, 0.5613146424293518, -2.0, -2.0, 0.9470638334751129, -2.0, -2.0, 0.5051403045654297, 0.3924509733915329, -2.0, -2.0, 0.7788203656673431, -2.0, -2.0], "value": [-2.4980018054066025e-18, 0.004460137686421242, -0.0024674452933330297, 0.01926748304386942, -0.01249895067973416, 0.014585066656831331, 0.017170537320341343, -0.016440581305288793, -0.01784055074568498, -0.008651277269299578, -0.013338201389215607, -0.0016208910894255357, -0.03315600653966066, -0.036766121775412566, -0.02593577606815683], "value_shape": [15, 1, 1], "n_node_samples": [40, 32, 19, 6, 13, 13, 12, 1, 8, 5, 3, 2, 3, 2, 1], "weighted_n_node_samples": [40.0, 32.0, 19.0, 6.0, 13.0, 13.0, 12.0, 1.0, 8.0, 5.0, 3.0, 2.0, 3.0, 2.0, 1.0], "impurity": [0.05435850281777173, 0.05310938195097298, 0.05794782630308869, 0.007141877475496335, 0.04953021066146908, 0.028772262210093994, 0.022479894610169658, -1.0408340855860843e-17, 0.01956932992129662, 0.00670950775590506, 0.0020789004866410624, 0.005417697020107075, 0.0034722570752604154, 0.0012985060082681688, -2.7755575615628914e-17]}, {"node_count": 15, "children_left": [1, 2, 3, -1, -1, 6, -1, -1, 9, 10, -1, -1, 13, -1, -1], "children_right": [8, 5, 4, -1, -1, 7, -1, -1, 12, 11, -1, -1, 14, -1, -1], "feature": [2, 2, 3, -2, -2, 3, -2, -2, 0, 0, -2, -2, 2, -2, -2], "threshold": [0.7880154848098755, 0.43993425369262695, 0.5613146424293518, -2.0, -2.0, 0.9470638334751129, -2.0, -2.0, 0.5051403045654297, 0.3924509733915329, -2.0, -2.0, 0.8778344690799713, -2.0, -2.0], "value": [-1.5265566588595904e-18, 0.00401412391777912, -0.0022207007639997232, 0.01734073473948248, -0.011249055611760742, 0.013126559991148196, 0.015453483588307206, -0.014796523174759914, -0.016056495671116482, -0.007786149542369621, -0.012004381250294046, -0.0014588019804829822, -0.029840405885694588, -0.03669298848398704, -0.026414114586548368], "value_shape": [15, 1, 1], "n_node_samples": [40, 32, 19, 6, 13, 13, 12, 1, 8, 5, 3, 2, 3, 1, 2], "weighted_n_node_samples": [40.0, 32.0, 19.0, 6.0, 13.0, 13.0, 12.0, 1.0, 8.0, 5.0, 3.0, 2.0, 3.0, 1.0, 2.0], "impurity": [0.04866720355227632, 0.04869783439175939, 0.05380517934002259, 0.0071418774754963416, 0.04953021066146908, 0.027248160060267416, 0.022479894610169658, -8.326672684688674e-17, 0.016318298539771275, 0.00608344091128832, 0.002078900486641064, 0.005417697020107079, 0.002977005658674897, 0.0, 0.0009436668680307958]}], "output": [0.5498344408411439, 0.553762098016593, 0.6630482509899676, 0.6630482509899676, 0.6565792163683245, 0.6335179284731853, 0.5665634306872596, 0.49647973126355555, 0.6565792163683245, 0.6398502265222088, 0.5370331081704773, 0.553762098016593, 0.5370331081704773, 0.6565792163683245, 0.4226419330152589, 0.6398502265222088, 0.49878779594002476, 0.6398502265222088, 0.5226436970641809, 0.650246918319301, 0.5623007976677672, 0.6565792163683245, 0.553762098016593, 0.6565792163683245, 0.553762098016593, 0.36127175748921597, 0.4913258580483004, 0.6335179284731853, 0.5623007976677672, 0.49647973126355555, 0.6565792163683245, 0.5059147072180652, 0.5059147072180652, 0.650246918319301, 0.46770482138618086, 0.49647973126355555, 0.6398502265222088, 0.3715506313866547, 0.6398502265222088, 0.6565792163683245], "output_shape": [40, 1, 1], "framework_predict_sanity": [0.5498344408411439, 0.5537620980165932, 0.6630482509899674, 0.6630482509899674, 0.6565792163683245, 0.6335179284731853, 0.5665634306872596, 0.49647973126355566, 0.6565792163683245, 0.6398502265222088, 0.5370331081704774, 0.5537620980165932, 0.5370331081704774, 0.6565792163683245, 0.42264193301525893, 0.6398502265222088, 0.4987877959400248, 0.6398502265222088, 0.5226436970641809, 0.650246918319301, 0.5623007976677672, 0.6565792163683245, 0.5537620980165932, 0.6565792163683245, 0.5537620980165932, 0.36127175748921597, 0.49132585804830037, 0.6335179284731853, 0.5623007976677672, 0.49647973126355566, 0.6565792163683245, 0.5059147072180652, 0.5059147072180652, 0.650246918319301, 0.4677048213861808, 0.49647973126355566, 0.6398502265222088, 0.3715506313866547, 0.6398502265222088, 0.6565792163683245], "base_scores": [0.5714060255145526], "n_classes": 1}, "gb_classifier": {"n_estimators": 5, "n_features_in": 4, "learning_rate": 0.1, "leaf_shrink_applied_capture_side": true, "trees": [{"node_count": 11, "children_left": [1, 2, 3, -1, -1, 6, -1, -1, 9, -1, -1], "children_right": [8, 5, 4, -1, -1, 7, -1, -1, 10, -1, -1], "feature": [1, 0, 2, -2, -2, 2, -2, -2, 2, -2, -2], "threshold": [0.6381474435329437, 0.5802847146987915, 0.9099970459938049, -2.0, -2.0, 0.5109038800001144, -2.0, -2.0, 0.9680216014385223, -2.0, -2.0], "value": [3.053113317719181e-18, -0.02157407407407406, -0.04223684210526314, -0.1904761904761905, 0.010025062656641624, 0.027500000000000004, 0.21052631578947373, -0.19047619047619047, 0.04480769230769232, 0.21052631578947373, -0.19047619047619047], "value_shape": [11, 1, 1], "n_node_samples": [40, 27, 19, 17, 2, 8, 6, 2, 13, 12, 1], "weighted_n_node_samples": [40.0, 27.0, 19.0, 17.0, 2.0, 8.0, 6.0, 2.0, 13.0, 12.0, 1.0], "impurity": [0.24937499999999976, 0.1920438957475994, 0.04986149584487534, 5.551115123125783e-17, 0.25000000000000006, 0.18749999999999964, 0.0, -1.1102230246251565e-16, 0.07100591715976276, -5.551115123125783e-17, 3.0531133177191805e-16]}, {"node_count": 11, "children_left": [1, 2, 3, -1, -1, 6, -1, -1, 9, -1, -1], "children_right": [8, 5, 4, -1, -1, 7, -1, -1, 10, -1, -1], "feature": [1, 0, 2, -2, -2, 2, -2, -2, 2, -2, -2], "threshold": [0.6381474435329437, 0.5802847146987915, 0.9099970459938049, -2.0, -2.0, 0.5109038800001144, -2.0, -2.0, 0.9680216014385223, -2.0, -2.0], "value": [-2.206682924456055e-05, -0.019444324717026215, -0.03804598869832714, -0.17478449197552628, 0.009018018193410563, 0.024734627238563494, 0.18954374965042614, -0.17478449197552628, 0.04031646878384041, 0.1895437496504261, -0.17478449197552628], "value_shape": [11, 1, 1], "n_node_samples": [40, 27, 19, 17, 2, 8, 6, 2, 13, 12, 1], "weighted_n_node_samples": [40.0, 27.0, 19.0, 17.0, 2.0, 8.0, 6.0, 2.0, 13.0, 12.0, 1.0], "impurity": [0.20449044251778592, 0.1591700510941044, 0.04541886974564158, 0.0, 0.2500000000000001, 0.15197092527488168, 0.0, -1.3877787807814457e-16, 0.05755111963072429, 8.326672684688674e-17, 1.3877787807814457e-16]}, {"node_count": 11, "children_left": [1, 2, 3, -1, -1, 6, -1, -1, 9, -1, -1], "children_right": [8, 5, 4, -1, -1, 7, -1, -1, 10, -1, -1], "feature": [1, 0, 2, -2, -2, 2, -2, -2, 2, -2, -2], "threshold": [0.6381474435329437, 0.5802847146987915, 0.9099970459938049, -2.0, -2.0, 0.5109038800001144, -2.0, -2.0, 0.9680216014385223, -2.0, -2.0], "value": [-3.446152205414568e-05, -0.01753627734264765, -0.03429853578628505, -0.16279189753326484, 0.008112911286562469, 0.02227408646099116, 0.1740828142613327, -0.16279189753326484, 0.03631546364379389, 0.1740828142613327, -0.16279189753326484], "value_shape": [11, 1, 1], "n_node_samples": [40, 27, 19, 17, 2, 8, 6, 2, 13, 12, 1], "weighted_n_node_samples": [40.0, 27.0, 19.0, 17.0, 2.0, 8.0, 6.0, 2.0, 13.0, 12.0, 1.0], "impurity": [0.1684057649890569, 0.13273800323941343, 0.04183804929765818, -5.551115123125783e-17, 0.24999999999999992, 0.12340772655209242, -8.326672684688674e-17, -2.7755575615628914e-17, 0.04673428697830745, -2.7755575615628914e-17, -1.3877787807814457e-16]}, {"node_count": 11, "children_left": [1, 2, 3, -1, -1, 6, -1, -1, 9, -1, -1], "children_right": [8, 5, 4, -1, -1, 7, -1, -1, 10, -1, -1], "feature": [1, 0, 2, -2, -2, 2, -2, -2, 0, -2, -2], "threshold": [0.6381474435329437, 0.5802847146987915, 0.9099970459938049, -2.0, -2.0, 0.5109038800001144, -2.0, -2.0, 0.06170713668689132, -2.0, -2.0], "value": [-4.1137939315512995e-05, -0.015823570759723328, -0.03093904532446127, -0.1533585457377736, 0.007299212670539685, 0.020075681331529305, 0.16224640389018982, -0.1533585457377736, 0.032737760995377625, -0.1533585457377736, 0.16224640389018985], "value_shape": [11, 1, 1], "n_node_samples": [40, 27, 19, 17, 2, 8, 6, 2, 13, 1, 12], "weighted_n_node_samples": [40.0, 27.0, 19.0, 17.0, 2.0, 8.0, 6.0, 2.0, 13.0, 1.0, 12.0], "impurity": [0.13928073900082677, 0.11140214481755137, 0.03894297685171948, -1.3877787807814457e-17, 0.2500000000000004, 0.10035361547742715, -2.7755575615628914e-17, 2.7755575615628914e-17, 0.03800373603878904, 0.0, -2.7755575615628914e-17]}, {"node_count": 11, "children_left": [1, 2, 3, -1, -1, 6, -1, -1, 9, -1, -1], "children_right": [8, 5, 4, -1, -1, 7, -1, -1, 10, -1, -1], "feature": [1, 0, 2, -2, -2, 2, -2, -2, 0, -2, -2], "threshold": [0.6381474435329437, 0.5802847146987915, 0.9099970459938049, -2.0, -2.0, 0.5109038800001144, -2.0, -2.0, 0.06170713668689132, -2.0, -2.0], "value": [-4.429484768597822e-05, -0.01428399258008436, -0.027921901251895732, -0.14577213966216016, 0.006567537478490693, 0.018106040515467672, 0.15292386444982164, -0.14577213966216016, 0.02953046198114144, -0.14577213966216016, 0.15292386444982164], "value_shape": [11, 1, 1], "n_node_samples": [40, 27, 19, 17, 2, 8, 6, 2, 13, 1, 12], "weighted_n_node_samples": [40.0, 27.0, 19.0, 17.0, 2.0, 8.0, 6.0, 2.0, 13.0, 1.0, 12.0], "impurity": [0.1157076420391144, 0.09413245635170425, 0.03659711847571247, 1.3877787807814457e-17, 0.2500000000000001, 0.08169422809068075, -4.163336342344337e-17, -1.3877787807814457e-17, 0.030937459158600897, 0.0, -8.326672684688674e-17]}], "output": [0.283479565825621, 0.6876680538620337, 0.6876680538620337, 0.6876680538620337, 0.283479565825621, 0.283479565825621, 0.6876680538620337, 0.283479565825621, 0.283479565825621, 0.6876680538620337, 0.283479565825621, 0.6876680538620337, 0.283479565825621, 0.283479565825621, 0.6876680538620337, 0.283479565825621, 0.283479565825621, 0.283479565825621, 0.283479565825621, 0.283479565825621, 0.48523911138793757, 0.283479565825621, 0.6876680538620337, 0.6876680538620337, 0.6876680538620337, 0.6876680538620337, 0.6876680538620337, 0.6876680538620337, 0.6876680538620337, 0.283479565825621, 0.6876680538620337, 0.283479565825621, 0.283479565825621, 0.6876680538620337, 0.6876680538620337, 0.283479565825621, 0.283479565825621, 0.48523911138793757, 0.283479565825621, 0.6876680538620337], "output_shape": [40, 1, 1], "framework_predict_sanity": [0.0, 1.0, 1.0, 1.0, 0.0, 0.0, 1.0, 0.0, 0.0, 1.0, 0.0, 1.0, 0.0, 0.0, 1.0, 0.0, 0.0, 0.0, 0.0, 0.0, 0.0, 0.0, 1.0, 1.0, 1.0, 1.0, 1.0, 1.0, 1.0, 0.0, 1.0, 0.0, 0.0, 1.0, 1.0, 0.0, 0.0, 0.0, 0.0, 1.0], "base_scores": [-0.10008345855698263], "n_classes": 2}}, "manifest": {"treelite": "4.7.0", "sklearn": "1.9.0", "lightgbm": "4.6.0", "numpy": "2.4.6", "python": "3.13.13", "os": "Linux-6.17.0-35-generic-x86_64-with-glibc2.39", "arch": "x86_64", "seed": 1234}, "sha256": "22c593a41aa5bb7c22e95982827ef48c0aac7305a97aa77a88ea64d8f3cf7248"}