{"learner":{"attributes":{"best_iteration":"5","best_ntree_limit":"6"},"feature_names":[],"feature_types":[],"gradient_booster":{"model":{"cats":{"enc":[],"feature_segments":[],"sorted_idx":[]},"gbtree_model_param":{"num_parallel_tree":"1","num_trees":"6"},"iteration_indptr":[0,1,2,3,4,5,6],"tree_info":[0,0,0,0,0,0],"trees":[{"base_weights":[-5.692308E-1,-1.4601227E0,8.910891E-1,-1.7941177E0,1.9354838E-1,-7.096774E-1,1.5135136E0,-1.8677686E0,-9.4736844E-1,1.5294118E0,-1.1111112E0,-1.3043479E0,6.666667E-1,1.8571428E0,3.6363637E-1],"categories":[],"categories_nodes":[],"categories_segments":[],"categories_sizes":[],"default_left":[1,1,1,1,1,1,1,0,0,0,0,0,0,0,0],"id":0,"left_children":[1,3,5,7,9,11,13,-1,-1,-1,-1,-1,-1,-1,-1],"loss_changes":[8.586527E1,2.2854195E1,2.62321E1,3.5090637E-1,1.5206409E1,7.212716E0,6.6346054E0,0E0,0E0,0E0,0E0,0E0,0E0,0E0,0E0],"parents":[2147483647,0,0,1,1,2,2,3,3,4,4,5,5,6,6],"right_children":[2,4,6,8,10,12,14,-1,-1,-1,-1,-1,-1,-1,-1],"split_conditions":[6.64378E-1,8.316965E-1,3.7263232E-1,6.9578755E-1,5.1535726E-1,9.3071234E-1,6.74729E-1,-5.603306E-1,-2.8421053E-1,4.5882356E-1,-3.3333337E-1,-3.9130437E-1,2.0000002E-1,5.5714285E-1,1.0909092E-1],"split_indices":[1,0,0,0,2,1,2,0,0,0,0,0,0,0,0],"split_type":[0,0,0,0,0,0,0,0,0,0,0,0,0,0,0],"sum_hessian":[6.4E1,3.975E1,2.425E1,3.3E1,6.75E0,6.75E0,1.75E1,2.925E1,3.75E0,3.25E0,3.5E0,4.75E0,2E0,1.3E1,4.5E0],"tree_param":{"num_deleted":"0","num_feature":"4","num_nodes":"15","size_leaf_vector":"0"}},{"base_weights":[-4.30436E-1,-1.1188295E0,6.8042624E-1,-1.3850461E0,1.589497E-1,-1.0332263E0,1.0605235E0,-4.3192312E-1,-1.4378557E0,1.2324883E0,-8.727377E-1,-1.3977104E-1,-1.2920587E0,1.3403181E0,-2.2624296E-1],"categories":[],"categories_nodes":[],"categories_segments":[],"categories_sizes":[],"default_left":[1,1,1,1,1,1,1,0,0,0,0,0,0,0,0],"id":1,"left_children":[1,3,5,7,9,11,13,-1,-1,-1,-1,-1,-1,-1,-1],"loss_changes":[4.7649002E1,1.3225964E1,1.67808E1,9.7678375E-1,9.370494E0,9.474931E-1,7.576765E0,0E0,0E0,0E0,0E0,0E0,0E0,0E0,0E0],"parents":[2147483647,0,0,1,1,2,2,3,3,4,4,5,5,6,6],"right_children":[2,4,6,8,10,12,14,-1,-1,-1,-1,-1,-1,-1,-1],"split_conditions":[6.64378E-1,8.316965E-1,2.2511412E-1,4.5339674E-2,5.1535726E-1,2.4348617E-1,7.810106E-1,-1.2957694E-1,-4.3135673E-1,3.697465E-1,-2.6182133E-1,-4.1931316E-2,-3.8761762E-1,4.0209544E-1,-6.787289E-2],"split_indices":[1,0,0,2,2,2,2,0,0,0,0,0,0,0,0],"split_type":[0,0,0,0,0,0,0,0,0,0,0,0,0,0,0],"sum_hessian":[6.0314354E1,3.723371E1,2.3080643E1,3.074438E1,6.4893303E0,3.8780954E0,1.9202547E1,2.0958972E0,2.8648483E1,3.0847805E0,3.40455E0,1.2170404E0,2.6610548E0,1.5738706E1,3.4638417E0],"tree_param":{"num_deleted":"0","num_feature":"4","num_nodes":"15","size_leaf_vector":"0"}},{"base_weights":[-3.5717887E-1,-1.0126916E0,4.1996074E-1,-1.191142E0,1.8828768E-1,-4.146146E-1,1.3833064E0,-3.5453135E-1,-1.2463334E0,9.4196314E-1,-6.50802E-1,5.846831E-1,-9.852751E-1],"categories":[],"categories_nodes":[],"categories_segments":[],"categories_sizes":[],"default_left":[1,1,1,1,1,1,0,0,0,0,0,0,0],"id":2,"left_children":[1,3,5,7,9,11,-1,-1,-1,-1,-1,-1,-1],"loss_changes":[2.8268904E1,6.6412373E0,2.1248207E1,7.6810455E-1,3.608666E0,8.872158E0,0E0,0E0,0E0,0E0,0E0,0E0,0E0],"parents":[2147483647,0,0,1,1,2,2,3,3,4,4,5,5],"right_children":[2,4,6,8,10,12,-1,-1,-1,-1,-1,-1,-1],"split_conditions":[5.9552956E-1,8.9162415E-1,5.802196E-1,4.5339674E-2,5.1535726E-1,3.0461782E-1,4.1499195E-1,-1.0635941E-1,-3.7390003E-1,2.8258896E-1,-1.9524062E-1,1.7540494E-1,-2.9558253E-1],"split_indices":[1,0,0,2,2,2,0,0,0,0,0,0,0],"split_type":[0,0,0,0,0,0,0,0,0,0,0,0,0],"sum_hessian":[5.365695E1,2.8941696E1,2.4715256E1,2.5204777E1,3.7369199E0,1.3547907E1,1.1167349E1,2.0192914E0,2.3185484E1,1.9040709E0,1.8328491E0,4.9155655E0,8.632341E0],"tree_param":{"num_deleted":"0","num_feature":"4","num_nodes":"13","size_leaf_vector":"0"}},{"base_weights":[-2.950569E-1,-7.385905E-1,5.882234E-1,-1.0426754E0,6.112124E-1,-5.912205E-1,1.2249637E0,-1.1470389E0,-2.8764242E-1,-2.6981196E-1,1.0500883E0,3.8316023E-1,-1.0832964E0,1.3532035E0,2.6892713E-1],"categories":[],"categories_nodes":[],"categories_segments":[],"categories_sizes":[],"default_left":[1,1,1,1,1,1,1,0,0,0,0,0,0,0,0],"id":3,"left_children":[1,3,5,7,9,11,13,-1,-1,-1,-1,-1,-1,-1,-1],"loss_changes":[1.9262356E1,1.3951258E1,1.3207432E1,1.7852154E0,2.8330994E0,3.5326161E0,9.994297E-1,0E0,0E0,0E0,0E0,0E0,0E0,0E0,0E0],"parents":[2147483647,0,0,1,1,2,2,3,3,4,4,5,5,6,6],"right_children":[2,4,6,8,10,12,14,-1,-1,-1,-1,-1,-1,-1,-1],"split_conditions":[6.9578755E-1,8.591848E-1,3.6898643E-1,5.9289515E-1,2.720871E-1,3.2646903E-1,8.668512E-1,-3.4411168E-1,-8.629273E-2,-8.094359E-2,3.150265E-1,1.1494807E-1,-3.2498893E-1,4.0596107E-1,8.067814E-2],"split_indices":[0,1,1,0,0,2,2,0,0,0,0,0,0,0,0],"split_type":[0,0,0,0,0,0,0,0,0,0,0,0,0,0,0],"sum_hessian":[4.7059235E1,3.1437101E1,1.5622131E1,2.5842756E1,5.5943465E0,5.502063E0,1.0120069E1,2.2248316E1,3.594439E0,1.9882474E0,3.6060994E0,1.9205128E0,3.5815501E0,8.556848E0,1.5632207E0],"tree_param":{"num_deleted":"0","num_feature":"4","num_nodes":"15","size_leaf_vector":"0"}},{"base_weights":[-2.4176763E-1,-7.680902E-1,3.640325E-1,-9.970359E-1,9.841064E-2,-7.207951E-1,7.1654487E-1,-1.6777198E-1,-1.0748662E0,6.368475E-1,-8.236752E-1,-1.0313538E0,2.213827E-1,1.1287298E0,-6.0301427E-2],"categories":[],"categories_nodes":[],"categories_segments":[],"categories_sizes":[],"default_left":[1,1,1,1,1,1,1,0,0,0,0,0,0,0,0],"id":4,"left_children":[1,3,5,7,9,11,13,-1,-1,-1,-1,-1,-1,-1,-1],"loss_changes":[1.3682997E1,4.6243286E0,8.249478E0,9.902687E-1,3.3438883E0,1.8253148E0,5.1156263E0,0E0,0E0,0E0,0E0,0E0,0E0,0E0,0E0],"parents":[2147483647,0,0,1,1,2,2,3,3,4,4,5,5,6,6],"right_children":[2,4,6,8,10,12,14,-1,-1,-1,-1,-1,-1,-1,-1],"split_conditions":[6.155093E-1,8.316965E-1,2.855643E-1,4.5339674E-2,7.4859846E-1,9.3783873E-1,6.3638306E-1,-5.0331596E-2,-3.2245988E-1,1.9105425E-1,-2.4710257E-1,-3.0940616E-1,6.641482E-2,3.3861896E-1,-1.8090429E-2],"split_indices":[1,0,0,2,2,1,2,0,0,0,0,0,0,0,0],"split_type":[0,0,0,0,0,0,0,0,0,0,0,0,0,0,0],"sum_hessian":[4.1037144E1,2.1815674E1,1.9221472E1,1.7137089E1,4.6785855E0,4.4579043E0,1.4763568E1,1.7411494E0,1.5395939E1,3.1490753E0,1.5295104E0,3.281586E0,1.1763183E0,9.349746E0,5.413822E0],"tree_param":{"num_deleted":"0","num_feature":"4","num_nodes":"15","size_leaf_vector":"0"}},{"base_weights":[-2.1351445E-1,-5.866257E-1,5.0951326E-1,-8.4926546E-1,4.3369302E-1,-4.7683027E-1,1.0671206E0,-9.59265E-1,-1.6656573E-1,-3.5199252E-1,6.7986965E-1,3.1711054E-1,-9.174123E-1,1.1904203E0,2.9099995E-1],"categories":[],"categories_nodes":[],"categories_segments":[],"categories_sizes":[],"default_left":[1,1,1,1,1,1,1,0,0,0,0,0,0,0,0],"id":5,"left_children":[1,3,5,7,9,11,13,-1,-1,-1,-1,-1,-1,-1,-1],"loss_changes":[1.0175826E1,6.964525E0,7.657401E0,1.3356867E0,1.3419766E0,2.174683E0,4.777403E-1,0E0,0E0,0E0,0E0,0E0,0E0,0E0,0E0],"parents":[2147483647,0,0,1,1,2,2,3,3,4,4,5,5,6,6],"right_children":[2,4,6,8,10,12,14,-1,-1,-1,-1,-1,-1,-1,-1],"split_conditions":[6.9578755E-1,8.591848E-1,3.6898643E-1,5.9289515E-1,1.3320252E-1,3.2646903E-1,8.668512E-1,-2.877795E-1,-4.996972E-2,-1.0559776E-1,2.0396091E-1,9.513316E-2,-2.752237E-1,3.571261E-1,8.729999E-2],"split_indices":[0,1,1,0,0,2,2,0,0,0,0,0,0,0,0],"split_type":[0,0,0,0,0,0,0,0,0,0,0,0,0,0,0],"sum_hessian":[3.5612453E1,2.3614883E1,1.1997571E1,1.891391E1,4.7009735E0,4.3853154E0,7.612256E0,1.5940414E1,2.973495E0,1.0189867E0,3.6819868E0,1.6650664E0,2.7202487E0,6.1080785E0,1.5041777E0],"tree_param":{"num_deleted":"0","num_feature":"4","num_nodes":"15","size_leaf_vector":"0"}}]},"name":"gbtree"},"learner_model_param":{"base_score":"[5E-1]","boost_from_average":"0","num_class":"0","num_feature":"4","num_target":"1"},"objective":{"name":"binary:logistic","reg_loss_param":{"scale_pos_weight":"1"}}},"version":[3,2,0]}